digraph Tree {
node [shape=box] ;
0 [label="ResponseArea_00-3603 <= 0.5\ngini = 0.173\nsamples = 6240\nvalue = [5644, 596]"] ;
1 [label="ResponseArea_00-4108 <= 0.5\ngini = 0.169\nsamples = 6211\nvalue = [5633, 578]"] ;
0 -> 1 [labeldistance=2.5, labelangle=45, headlabel="True"] ;
2 [label="ResponseArea_00-3602 <= 0.5\ngini = 0.167\nsamples = 6205\nvalue = [5633, 572]"] ;
1 -> 2 ;
3 [label="ResponseArea_00-4209 <= 0.5\ngini = 0.165\nsamples = 6183\nvalue = [5623, 560]"] ;
2 -> 3 ;
4 [label="ResponseArea_00-2703 <= 0.5\ngini = 0.164\nsamples = 6178\nvalue = [5623, 555]"] ;
3 -> 4 ;
5 [label="ResponseArea_00-3107 <= 0.5\ngini = 0.161\nsamples = 6151\nvalue = [5608, 543]"] ;
4 -> 5 ;
6 [label="ResponseArea_00-2904 <= 0.5\ngini = 0.16\nsamples = 6147\nvalue = [5608, 539]"] ;
5 -> 6 ;
7 [label="ResponseArea_00-2905 <= 0.5\ngini = 0.157\nsamples = 6106\nvalue = [5582, 524]"] ;
6 -> 7 ;
8 [label="ResponseArea_00-3607 <= 0.5\ngini = 0.156\nsamples = 6101\nvalue = [5581, 520]"] ;
7 -> 8 ;
9 [label="ResponseArea_00-3604 <= 0.5\ngini = 0.154\nsamples = 6075\nvalue = [5565, 510]"] ;
8 -> 9 ;
10 [label="ResponseArea_00-3204 <= 0.5\ngini = 0.151\nsamples = 6018\nvalue = [5524, 494]"] ;
9 -> 10 ;
11 [label="ResponseArea_00-3102 <= 0.5\ngini = 0.149\nsamples = 6002\nvalue = [5515, 487]"] ;
10 -> 11 ;
12 [label="ResponseArea_00-3907 <= 0.5\ngini = 0.148\nsamples = 5993\nvalue = [5511, 482]"] ;
11 -> 12 ;
13 [label="ResponseArea_00-3106 <= 0.5\ngini = 0.146\nsamples = 5976\nvalue = [5501, 475]"] ;
12 -> 13 ;
14 [label="ResponseArea_00-4305 <= 0.5\ngini = 0.146\nsamples = 5972\nvalue = [5500, 472]"] ;
13 -> 14 ;
15 [label="ResponseArea_00-2910 <= 0.5\ngini = 0.145\nsamples = 5970\nvalue = [5500, 470]"] ;
14 -> 15 ;
16 [label="ResponseArea_00-4210 <= 0.5\ngini = 0.145\nsamples = 5968\nvalue = [5500, 468]"] ;
15 -> 16 ;
17 [label="Problem_GRASS - Small Grass Fire <= 0.5\ngini = 0.144\nsamples = 5966\nvalue = [5500, 466]"] ;
16 -> 17 ;
18 [label="ResponseArea_00-3504 <= 0.5\ngini = 0.134\nsamples = 5184\nvalue = [4810, 374]"] ;
17 -> 18 ;
19 [label="ResponseArea_00-3611 <= 0.5\ngini = 0.132\nsamples = 5155\nvalue = [4789, 366]"] ;
18 -> 19 ;
20 [label="ResponseArea_00-4102 <= 0.5\ngini = 0.13\nsamples = 5131\nvalue = [4772, 359]"] ;
19 -> 20 ;
21 [label="ResponseArea_00-4104 <= 0.5\ngini = 0.13\nsamples = 5130\nvalue = [4772, 358]"] ;
20 -> 21 ;
22 [label="ResponseArea_00-4006 <= 0.5\ngini = 0.13\nsamples = 5129\nvalue = [4772, 357]"] ;
21 -> 22 ;
23 [label="ResponseArea_00-2907 <= 0.5\ngini = 0.129\nsamples = 5128\nvalue = [4772, 356]"] ;
22 -> 23 ;
24 [label="ResponseArea_00-3702 <= 0.5\ngini = 0.129\nsamples = 5127\nvalue = [4772, 355]"] ;
23 -> 24 ;
25 [label="ResponseArea_00-0070 <= 0.5\ngini = 0.129\nsamples = 5126\nvalue = [4772, 354]"] ;
24 -> 25 ;
26 [label="ResponseArea_00-3209 <= 0.5\ngini = 0.128\nsamples = 5125\nvalue = [4772, 353]"] ;
25 -> 26 ;
27 [label="ResponseArea_00-2607 <= 0.5\ngini = 0.128\nsamples = 5124\nvalue = [4772, 352]"] ;
26 -> 27 ;
28 [label="ResponseArea_00-4506 <= 0.5\ngini = 0.127\nsamples = 5107\nvalue = [4760, 347]"] ;
27 -> 28 ;
29 [label="hour_2 <= 0.5\ngini = 0.126\nsamples = 5103\nvalue = [4758, 345]"] ;
28 -> 29 ;
30 [label="Problem_DUMP - Dumpster Fire <= 0.5\ngini = 0.123\nsamples = 5003\nvalue = [4673, 330]"] ;
29 -> 30 ;
31 [label="hour_7 <= 0.5\ngini = 0.129\nsamples = 4587\nvalue = [4269, 318]"] ;
30 -> 31 ;
32 [label="ResponseArea_00-1705 <= 0.5\ngini = 0.126\nsamples = 4470\nvalue = [4168, 302]"] ;
31 -> 32 ;
33 [label="ResponseArea_00-3404 <= 0.5\ngini = 0.124\nsamples = 4425\nvalue = [4131, 294]"] ;
32 -> 33 ;
34 [label="ResponseArea_00-2702 <= 0.5\ngini = 0.123\nsamples = 4414\nvalue = [4123, 291]"] ;
33 -> 34 ;
35 [label="ResponseArea_00-2404 <= 0.5\ngini = 0.122\nsamples = 4395\nvalue = [4108, 287]"] ;
34 -> 35 ;
36 [label="ResponseArea_00-2403 <= 0.5\ngini = 0.121\nsamples = 4376\nvalue = [4093, 283]"] ;
35 -> 36 ;
37 [label="ResponseArea_00-1603 <= 0.5\ngini = 0.119\nsamples = 4304\nvalue = [4031, 273]"] ;
36 -> 37 ;
38 [label="ResponseArea_00-2001 <= 0.5\ngini = 0.117\nsamples = 4277\nvalue = [4009, 268]"] ;
37 -> 38 ;
39 [label="ResponseArea_00-2402 <= 0.5\ngini = 0.116\nsamples = 4256\nvalue = [3992, 264]"] ;
38 -> 39 ;
40 [label="hour_20 <= 0.5\ngini = 0.114\nsamples = 4187\nvalue = [3932, 255]"] ;
39 -> 40 ;
41 [label="ResponseArea_00-2601 <= 0.5\ngini = 0.119\nsamples = 3878\nvalue = [3632, 246]"] ;
40 -> 41 ;
42 [label="ResponseArea_00-3403 <= 0.5\ngini = 0.117\nsamples = 3852\nvalue = [3611, 241]"] ;
41 -> 42 ;
43 [label="ResponseArea_00-4502 <= 0.5\ngini = 0.116\nsamples = 3840\nvalue = [3602, 238]"] ;
42 -> 43 ;
44 [label="ResponseArea_00-4103 <= 0.5\ngini = 0.116\nsamples = 3838\nvalue = [3601, 237]"] ;
43 -> 44 ;
45 [label="ResponseArea_00-3601 <= 0.5\ngini = 0.115\nsamples = 3831\nvalue = [3596, 235]"] ;
44 -> 45 ;
46 [label="ResponseArea_00-1602 <= 0.5\ngini = 0.114\nsamples = 3810\nvalue = [3579, 231]"] ;
45 -> 46 ;
47 [label="ResponseArea_00-2906 <= 0.5\ngini = 0.112\nsamples = 3778\nvalue = [3552, 226]"] ;
46 -> 47 ;
48 [label="ResponseArea_00-3901 <= 0.5\ngini = 0.112\nsamples = 3770\nvalue = [3546, 224]"] ;
47 -> 48 ;
49 [label="hour_23 <= 0.5\ngini = 0.111\nsamples = 3762\nvalue = [3540, 222]"] ;
48 -> 49 ;
50 [label="ResponseArea_00-2401 <= 0.5\ngini = 0.108\nsamples = 3590\nvalue = [3385, 205]"] ;
49 -> 50 ;
51 [label="day_of_week_6 <= 0.5\ngini = 0.106\nsamples = 3557\nvalue = [3357, 200]"] ;
50 -> 51 ;
52 [label="hour_4 <= 0.5\ngini = 0.112\nsamples = 3054\nvalue = [2872, 182]"] ;
51 -> 52 ;
53 [label="ResponseArea_00-3608 <= 0.5\ngini = 0.11\nsamples = 3013\nvalue = [2837, 176]"] ;
52 -> 53 ;
54 [label="hour_17 <= 0.5\ngini = 0.109\nsamples = 3011\nvalue = [2836, 175]"] ;
53 -> 54 ;
55 [label="ResponseArea_00-3701 <= 0.5\ngini = 0.104\nsamples = 2743\nvalue = [2592, 151]"] ;
54 -> 55 ;
56 [label="ResponseArea_00-0505 <= 0.5\ngini = 0.102\nsamples = 2720\nvalue = [2573, 147]"] ;
55 -> 56 ;
57 [label="Problem_AUTO - Auto Fire <= 0.5\ngini = 0.101\nsamples = 2705\nvalue = [2561, 144]"] ;
56 -> 57 ;
58 [label="ResponseArea_00-4002 <= 0.5\ngini = 0.09\nsamples = 1911\nvalue = [1821, 90]"] ;
57 -> 58 ;
59 [label="ResponseArea_00-2605 <= 0.5\ngini = 0.089\nsamples = 1910\nvalue = [1821, 89]"] ;
58 -> 59 ;
60 [label="ResponseArea_00-2805 <= 0.5\ngini = 0.088\nsamples = 1908\nvalue = [1820, 88]"] ;
59 -> 60 ;
61 [label="ResponseArea_00-0604 <= 0.5\ngini = 0.086\nsamples = 1899\nvalue = [1813, 86]"] ;
60 -> 61 ;
62 [label="ResponseArea_00-1505 <= 0.5\ngini = 0.084\nsamples = 1881\nvalue = [1798, 83]"] ;
61 -> 62 ;
63 [label="ResponseArea_00-3804 <= 0.5\ngini = 0.084\nsamples = 1878\nvalue = [1796, 82]"] ;
62 -> 63 ;
64 [label="ResponseArea_00-1710 <= 0.5\ngini = 0.083\nsamples = 1875\nvalue = [1794, 81]"] ;
63 -> 64 ;
65 [label="ResponseArea_00-2806 <= 0.5\ngini = 0.082\nsamples = 1872\nvalue = [1792, 80]"] ;
64 -> 65 ;
66 [label="ResponseArea_00-1701 <= 0.5\ngini = 0.08\nsamples = 1853\nvalue = [1776, 77]"] ;
65 -> 66 ;
67 [label="ResponseArea_00-2304 <= 0.5\ngini = 0.079\nsamples = 1850\nvalue = [1774, 76]"] ;
66 -> 67 ;
68 [label="ResponseArea_00-1104 <= 0.5\ngini = 0.077\nsamples = 1829\nvalue = [1756, 73]"] ;
67 -> 68 ;
69 [label="Problem_BOX -Structure Fire <= 0.5\ngini = 0.075\nsamples = 1818\nvalue = [1747, 71]"] ;
68 -> 69 ;
70 [label="ResponseArea_00-3101 <= 0.5\ngini = 0.074\nsamples = 1814\nvalue = [1744, 70]"] ;
69 -> 70 ;
71 [label="day_of_week_2 <= 0.5\ngini = 0.073\nsamples = 1810\nvalue = [1741, 69]"] ;
70 -> 71 ;
72 [label="ResponseArea_00-1405 <= 0.5\ngini = 0.065\nsamples = 1535\nvalue = [1483, 52]"] ;
71 -> 72 ;
73 [label="ResponseArea_00-0702 <= 0.5\ngini = 0.064\nsamples = 1532\nvalue = [1481, 51]"] ;
72 -> 73 ;
74 [label="ResponseArea_00-2002 <= 0.5\ngini = 0.063\nsamples = 1517\nvalue = [1468, 49]"] ;
73 -> 74 ;
75 [label="ResponseArea_00-3301 <= 0.5\ngini = 0.061\nsamples = 1502\nvalue = [1455, 47]"] ;
74 -> 75 ;
76 [label="ResponseArea_00-3001 <= 0.5\ngini = 0.06\nsamples = 1497\nvalue = [1451, 46]"] ;
75 -> 76 ;
77 [label="ResponseArea_00-1903 <= 0.5\ngini = 0.057\nsamples = 1464\nvalue = [1421, 43]"] ;
76 -> 77 ;
78 [label="ResponseArea_00-1401 <= 0.5\ngini = 0.055\nsamples = 1446\nvalue = [1405, 41]"] ;
77 -> 78 ;
79 [label="ResponseArea_00-4004 <= 0.5\ngini = 0.054\nsamples = 1440\nvalue = [1400, 40]"] ;
78 -> 79 ;
80 [label="ResponseArea_00-1707 <= 0.5\ngini = 0.053\nsamples = 1434\nvalue = [1395, 39]"] ;
79 -> 80 ;
81 [label="ResponseArea_00-3801 <= 0.5\ngini = 0.052\nsamples = 1428\nvalue = [1390, 38]"] ;
80 -> 81 ;
82 [label="ResponseArea_00-1805 <= 0.5\ngini = 0.051\nsamples = 1422\nvalue = [1385, 37]"] ;
81 -> 82 ;
83 [label="ResponseArea_00-3802 <= 0.5\ngini = 0.05\nsamples = 1415\nvalue = [1379, 36]"] ;
82 -> 83 ;
84 [label="ResponseArea_00-1712 <= 0.5\ngini = 0.048\nsamples = 1408\nvalue = [1373, 35]"] ;
83 -> 84 ;
85 [label="ResponseArea_00-0402 <= 0.5\ngini = 0.047\nsamples = 1401\nvalue = [1367, 34]"] ;
84 -> 85 ;
86 [label="ResponseArea_00-4504 <= 0.5\ngini = 0.046\nsamples = 1394\nvalue = [1361, 33]"] ;
85 -> 86 ;
87 [label="hour_18 <= 0.5\ngini = 0.045\nsamples = 1386\nvalue = [1354, 32]"] ;
86 -> 87 ;
88 [label="ResponseArea_00-0801 <= 0.5\ngini = 0.04\nsamples = 1231\nvalue = [1206, 25]"] ;
87 -> 88 ;
89 [label="ResponseArea_00-1605 <= 0.5\ngini = 0.038\nsamples = 1224\nvalue = [1200, 24]"] ;
88 -> 89 ;
90 [label="ResponseArea_00-1204 <= 0.5\ngini = 0.037\nsamples = 1217\nvalue = [1194, 23]"] ;
89 -> 90 ;
91 [label="ResponseArea_00-1102 <= 0.5\ngini = 0.036\nsamples = 1209\nvalue = [1187, 22]"] ;
90 -> 91 ;
92 [label="hour_12 <= 0.5\ngini = 0.034\nsamples = 1201\nvalue = [1180, 21]"] ;
91 -> 92 ;
93 [label="hour_1 <= 0.5\ngini = 0.03\nsamples = 1118\nvalue = [1101, 17]"] ;
92 -> 93 ;
94 [label="ResponseArea_00-3809 <= 0.5\ngini = 0.027\nsamples = 1086\nvalue = [1071, 15]"] ;
93 -> 94 ;
95 [label="ResponseArea_00-2202 <= 0.5\ngini = 0.026\nsamples = 1076\nvalue = [1062, 14]"] ;
94 -> 95 ;
96 [label="ResponseArea_00-0803 <= 0.5\ngini = 0.023\nsamples = 1043\nvalue = [1031, 12]"] ;
95 -> 96 ;
97 [label="ResponseArea_00-2803 <= 0.5\ngini = 0.021\nsamples = 1032\nvalue = [1021, 11]"] ;
96 -> 97 ;
98 [label="ResponseArea_00-2306 <= 0.5\ngini = 0.019\nsamples = 1021\nvalue = [1011, 10]"] ;
97 -> 98 ;
99 [label="ResponseArea_00-1601 <= 0.5\ngini = 0.018\nsamples = 1010\nvalue = [1001, 9]"] ;
98 -> 99 ;
100 [label="ResponseArea_00-2004 <= 0.5\ngini = 0.016\nsamples = 998\nvalue = [990, 8]"] ;
99 -> 100 ;
101 [label="ResponseArea_00-1403 <= 0.5\ngini = 0.014\nsamples = 986\nvalue = [979, 7]"] ;
100 -> 101 ;
102 [label="ResponseArea_00-1804 <= 0.5\ngini = 0.012\nsamples = 972\nvalue = [966, 6]"] ;
101 -> 102 ;
103 [label="ResponseArea_00-0601 <= 0.5\ngini = 0.01\nsamples = 956\nvalue = [951, 5]"] ;
102 -> 103 ;
104 [label="ResponseArea_00-2101 <= 0.5\ngini = 0.008\nsamples = 938\nvalue = [934, 4]"] ;
103 -> 104 ;
105 [label="ResponseArea_00-1802 <= 0.5\ngini = 0.007\nsamples = 919\nvalue = [916, 3]"] ;
104 -> 105 ;
106 [label="ResponseArea_00-2005 <= 0.5\ngini = 0.004\nsamples = 898\nvalue = [896, 2]"] ;
105 -> 106 ;
107 [label="ResponseArea_00-0501 <= 0.5\ngini = 0.002\nsamples = 876\nvalue = [875, 1]"] ;
106 -> 107 ;
108 [label="gini = 0.0\nsamples = 851\nvalue = [851, 0]"] ;
107 -> 108 ;
109 [label="hour_16 <= 0.5\ngini = 0.077\nsamples = 25\nvalue = [24, 1]"] ;
107 -> 109 ;
110 [label="gini = 0.0\nsamples = 22\nvalue = [22, 0]"] ;
109 -> 110 ;
111 [label="Problem_ELEC - Electrical Fire <= 0.5\ngini = 0.444\nsamples = 3\nvalue = [2, 1]"] ;
109 -> 111 ;
112 [label="gini = 0.0\nsamples = 2\nvalue = [2, 0]"] ;
111 -> 112 ;
113 [label="gini = 0.0\nsamples = 1\nvalue = [0, 1]"] ;
111 -> 113 ;
114 [label="hour_22 <= 0.5\ngini = 0.087\nsamples = 22\nvalue = [21, 1]"] ;
106 -> 114 ;
115 [label="gini = 0.0\nsamples = 19\nvalue = [19, 0]"] ;
114 -> 115 ;
116 [label="day_of_week_0 <= 0.5\ngini = 0.444\nsamples = 3\nvalue = [2, 1]"] ;
114 -> 116 ;
117 [label="gini = 0.0\nsamples = 1\nvalue = [0, 1]"] ;
116 -> 117 ;
118 [label="gini = 0.0\nsamples = 2\nvalue = [2, 0]"] ;
116 -> 118 ;
119 [label="hour_21 <= 0.5\ngini = 0.091\nsamples = 21\nvalue = [20, 1]"] ;
105 -> 119 ;
120 [label="gini = 0.0\nsamples = 20\nvalue = [20, 0]"] ;
119 -> 120 ;
121 [label="gini = 0.0\nsamples = 1\nvalue = [0, 1]"] ;
119 -> 121 ;
122 [label="hour_16 <= 0.5\ngini = 0.1\nsamples = 19\nvalue = [18, 1]"] ;
104 -> 122 ;
123 [label="gini = 0.0\nsamples = 16\nvalue = [16, 0]"] ;
122 -> 123 ;
124 [label="day_of_week_5 <= 0.5\ngini = 0.444\nsamples = 3\nvalue = [2, 1]"] ;
122 -> 124 ;
125 [label="gini = 0.5\nsamples = 2\nvalue = [1, 1]"] ;
124 -> 125 ;
126 [label="gini = 0.0\nsamples = 1\nvalue = [1, 0]"] ;
124 -> 126 ;
127 [label="hour_22 <= 0.5\ngini = 0.105\nsamples = 18\nvalue = [17, 1]"] ;
103 -> 127 ;
128 [label="gini = 0.0\nsamples = 17\nvalue = [17, 0]"] ;
127 -> 128 ;
129 [label="gini = 0.0\nsamples = 1\nvalue = [0, 1]"] ;
127 -> 129 ;
130 [label="Problem_BBQ - Unsafe Cooking <= 0.5\ngini = 0.117\nsamples = 16\nvalue = [15, 1]"] ;
102 -> 130 ;
131 [label="gini = 0.0\nsamples = 14\nvalue = [14, 0]"] ;
130 -> 131 ;
132 [label="hour_11 <= 0.5\ngini = 0.5\nsamples = 2\nvalue = [1, 1]"] ;
130 -> 132 ;
133 [label="gini = 0.0\nsamples = 1\nvalue = [0, 1]"] ;
132 -> 133 ;
134 [label="gini = 0.0\nsamples = 1\nvalue = [1, 0]"] ;
132 -> 134 ;
135 [label="hour_8 <= 0.5\ngini = 0.133\nsamples = 14\nvalue = [13, 1]"] ;
101 -> 135 ;
136 [label="gini = 0.0\nsamples = 13\nvalue = [13, 0]"] ;
135 -> 136 ;
137 [label="gini = 0.0\nsamples = 1\nvalue = [0, 1]"] ;
135 -> 137 ;
138 [label="hour_16 <= 0.5\ngini = 0.153\nsamples = 12\nvalue = [11, 1]"] ;
100 -> 138 ;
139 [label="gini = 0.0\nsamples = 11\nvalue = [11, 0]"] ;
138 -> 139 ;
140 [label="gini = 0.0\nsamples = 1\nvalue = [0, 1]"] ;
138 -> 140 ;
141 [label="hour_9 <= 0.5\ngini = 0.153\nsamples = 12\nvalue = [11, 1]"] ;
99 -> 141 ;
142 [label="gini = 0.0\nsamples = 11\nvalue = [11, 0]"] ;
141 -> 142 ;
143 [label="gini = 0.0\nsamples = 1\nvalue = [0, 1]"] ;
141 -> 143 ;
144 [label="day_of_week_3 <= 0.5\ngini = 0.165\nsamples = 11\nvalue = [10, 1]"] ;
98 -> 144 ;
145 [label="gini = 0.0\nsamples = 10\nvalue = [10, 0]"] ;
144 -> 145 ;
146 [label="gini = 0.0\nsamples = 1\nvalue = [0, 1]"] ;
144 -> 146 ;
147 [label="hour_15 <= 0.5\ngini = 0.165\nsamples = 11\nvalue = [10, 1]"] ;
97 -> 147 ;
148 [label="gini = 0.0\nsamples = 9\nvalue = [9, 0]"] ;
147 -> 148 ;
149 [label="day_of_week_1 <= 0.5\ngini = 0.5\nsamples = 2\nvalue = [1, 1]"] ;
147 -> 149 ;
150 [label="gini = 0.0\nsamples = 1\nvalue = [1, 0]"] ;
149 -> 150 ;
151 [label="gini = 0.0\nsamples = 1\nvalue = [0, 1]"] ;
149 -> 151 ;
152 [label="day_of_week_5 <= 0.5\ngini = 0.165\nsamples = 11\nvalue = [10, 1]"] ;
96 -> 152 ;
153 [label="gini = 0.0\nsamples = 10\nvalue = [10, 0]"] ;
152 -> 153 ;
154 [label="gini = 0.0\nsamples = 1\nvalue = [0, 1]"] ;
152 -> 154 ;
155 [label="Problem_BBQ - Unsafe Cooking <= 0.5\ngini = 0.114\nsamples = 33\nvalue = [31, 2]"] ;
95 -> 155 ;
156 [label="hour_0 <= 0.5\ngini = 0.064\nsamples = 30\nvalue = [29, 1]"] ;
155 -> 156 ;
157 [label="gini = 0.0\nsamples = 24\nvalue = [24, 0]"] ;
156 -> 157 ;
158 [label="day_of_week_0 <= 0.5\ngini = 0.278\nsamples = 6\nvalue = [5, 1]"] ;
156 -> 158 ;
159 [label="gini = 0.0\nsamples = 4\nvalue = [4, 0]"] ;
158 -> 159 ;
160 [label="Problem_TRASH - Trash Fire <= 0.5\ngini = 0.5\nsamples = 2\nvalue = [1, 1]"] ;
158 -> 160 ;
161 [label="gini = 0.0\nsamples = 1\nvalue = [1, 0]"] ;
160 -> 161 ;
162 [label="gini = 0.0\nsamples = 1\nvalue = [0, 1]"] ;
160 -> 162 ;
163 [label="day_of_week_4 <= 0.5\ngini = 0.444\nsamples = 3\nvalue = [2, 1]"] ;
155 -> 163 ;
164 [label="gini = 0.0\nsamples = 2\nvalue = [2, 0]"] ;
163 -> 164 ;
165 [label="gini = 0.0\nsamples = 1\nvalue = [0, 1]"] ;
163 -> 165 ;
166 [label="hour_0 <= 0.5\ngini = 0.18\nsamples = 10\nvalue = [9, 1]"] ;
94 -> 166 ;
167 [label="gini = 0.0\nsamples = 9\nvalue = [9, 0]"] ;
166 -> 167 ;
168 [label="gini = 0.0\nsamples = 1\nvalue = [0, 1]"] ;
166 -> 168 ;
169 [label="ResponseArea_00-1101 <= 0.5\ngini = 0.117\nsamples = 32\nvalue = [30, 2]"] ;
93 -> 169 ;
170 [label="ResponseArea_00-1803 <= 0.5\ngini = 0.062\nsamples = 31\nvalue = [30, 1]"] ;
169 -> 170 ;
171 [label="gini = 0.0\nsamples = 30\nvalue = [30, 0]"] ;
170 -> 171 ;
172 [label="gini = 0.0\nsamples = 1\nvalue = [0, 1]"] ;
170 -> 172 ;
173 [label="gini = 0.0\nsamples = 1\nvalue = [0, 1]"] ;
169 -> 173 ;
174 [label="ResponseArea_00-0804 <= 0.5\ngini = 0.092\nsamples = 83\nvalue = [79, 4]"] ;
92 -> 174 ;
175 [label="ResponseArea_00-0603 <= 0.5\ngini = 0.07\nsamples = 82\nvalue = [79, 3]"] ;
174 -> 175 ;
176 [label="ResponseArea_00-2606 <= 0.5\ngini = 0.048\nsamples = 81\nvalue = [79, 2]"] ;
175 -> 176 ;
177 [label="ResponseArea_00-0701 <= 0.5\ngini = 0.025\nsamples = 79\nvalue = [78, 1]"] ;
176 -> 177 ;
178 [label="gini = 0.0\nsamples = 76\nvalue = [76, 0]"] ;
177 -> 178 ;
179 [label="Problem_ELEC - Electrical Fire <= 0.5\ngini = 0.444\nsamples = 3\nvalue = [2, 1]"] ;
177 -> 179 ;
180 [label="gini = 0.0\nsamples = 2\nvalue = [2, 0]"] ;
179 -> 180 ;
181 [label="gini = 0.0\nsamples = 1\nvalue = [0, 1]"] ;
179 -> 181 ;
182 [label="day_of_week_5 <= 0.5\ngini = 0.5\nsamples = 2\nvalue = [1, 1]"] ;
176 -> 182 ;
183 [label="gini = 0.0\nsamples = 1\nvalue = [0, 1]"] ;
182 -> 183 ;
184 [label="gini = 0.0\nsamples = 1\nvalue = [1, 0]"] ;
182 -> 184 ;
185 [label="gini = 0.0\nsamples = 1\nvalue = [0, 1]"] ;
175 -> 185 ;
186 [label="gini = 0.0\nsamples = 1\nvalue = [0, 1]"] ;
174 -> 186 ;
187 [label="day_of_week_0 <= 0.5\ngini = 0.219\nsamples = 8\nvalue = [7, 1]"] ;
91 -> 187 ;
188 [label="gini = 0.0\nsamples = 7\nvalue = [7, 0]"] ;
187 -> 188 ;
189 [label="gini = 0.0\nsamples = 1\nvalue = [0, 1]"] ;
187 -> 189 ;
190 [label="day_of_week_0 <= 0.5\ngini = 0.219\nsamples = 8\nvalue = [7, 1]"] ;
90 -> 190 ;
191 [label="gini = 0.0\nsamples = 6\nvalue = [6, 0]"] ;
190 -> 191 ;
192 [label="hour_15 <= 0.5\ngini = 0.5\nsamples = 2\nvalue = [1, 1]"] ;
190 -> 192 ;
193 [label="gini = 0.0\nsamples = 1\nvalue = [0, 1]"] ;
192 -> 193 ;
194 [label="gini = 0.0\nsamples = 1\nvalue = [1, 0]"] ;
192 -> 194 ;
195 [label="hour_13 <= 0.5\ngini = 0.245\nsamples = 7\nvalue = [6, 1]"] ;
89 -> 195 ;
196 [label="gini = 0.0\nsamples = 6\nvalue = [6, 0]"] ;
195 -> 196 ;
197 [label="gini = 0.0\nsamples = 1\nvalue = [0, 1]"] ;
195 -> 197 ;
198 [label="hour_11 <= 0.5\ngini = 0.245\nsamples = 7\nvalue = [6, 1]"] ;
88 -> 198 ;
199 [label="gini = 0.0\nsamples = 6\nvalue = [6, 0]"] ;
198 -> 199 ;
200 [label="gini = 0.0\nsamples = 1\nvalue = [0, 1]"] ;
198 -> 200 ;
201 [label="ResponseArea_00-2303 <= 0.5\ngini = 0.086\nsamples = 155\nvalue = [148, 7]"] ;
87 -> 201 ;
202 [label="ResponseArea_00-4101 <= 0.5\ngini = 0.075\nsamples = 154\nvalue = [148, 6]"] ;
201 -> 202 ;
203 [label="ResponseArea_00-0203 <= 0.5\ngini = 0.063\nsamples = 153\nvalue = [148, 5]"] ;
202 -> 203 ;
204 [label="ResponseArea_00-2706 <= 0.5\ngini = 0.051\nsamples = 152\nvalue = [148, 4]"] ;
203 -> 204 ;
205 [label="ResponseArea_00-3606 <= 0.5\ngini = 0.039\nsamples = 150\nvalue = [147, 3]"] ;
204 -> 205 ;
206 [label="ResponseArea_00-1801 <= 0.5\ngini = 0.027\nsamples = 148\nvalue = [146, 2]"] ;
205 -> 206 ;
207 [label="ResponseArea_00-1802 <= 0.5\ngini = 0.014\nsamples = 145\nvalue = [144, 1]"] ;
206 -> 207 ;
208 [label="gini = 0.0\nsamples = 141\nvalue = [141, 0]"] ;
207 -> 208 ;
209 [label="day_of_week_4 <= 0.5\ngini = 0.375\nsamples = 4\nvalue = [3, 1]"] ;
207 -> 209 ;
210 [label="gini = 0.0\nsamples = 2\nvalue = [2, 0]"] ;
209 -> 210 ;
211 [label="gini = 0.5\nsamples = 2\nvalue = [1, 1]"] ;
209 -> 211 ;
212 [label="day_of_week_3 <= 0.5\ngini = 0.444\nsamples = 3\nvalue = [2, 1]"] ;
206 -> 212 ;
213 [label="gini = 0.0\nsamples = 1\nvalue = [0, 1]"] ;
212 -> 213 ;
214 [label="gini = 0.0\nsamples = 2\nvalue = [2, 0]"] ;
212 -> 214 ;
215 [label="Problem_ELEC - Electrical Fire <= 0.5\ngini = 0.5\nsamples = 2\nvalue = [1, 1]"] ;
205 -> 215 ;
216 [label="gini = 0.0\nsamples = 1\nvalue = [0, 1]"] ;
215 -> 216 ;
217 [label="gini = 0.0\nsamples = 1\nvalue = [1, 0]"] ;
215 -> 217 ;
218 [label="day_of_week_4 <= 0.5\ngini = 0.5\nsamples = 2\nvalue = [1, 1]"] ;
204 -> 218 ;
219 [label="gini = 0.0\nsamples = 1\nvalue = [1, 0]"] ;
218 -> 219 ;
220 [label="gini = 0.0\nsamples = 1\nvalue = [0, 1]"] ;
218 -> 220 ;
221 [label="gini = 0.0\nsamples = 1\nvalue = [0, 1]"] ;
203 -> 221 ;
222 [label="gini = 0.0\nsamples = 1\nvalue = [0, 1]"] ;
202 -> 222 ;
223 [label="gini = 0.0\nsamples = 1\nvalue = [0, 1]"] ;
201 -> 223 ;
224 [label="hour_21 <= 0.5\ngini = 0.219\nsamples = 8\nvalue = [7, 1]"] ;
86 -> 224 ;
225 [label="gini = 0.0\nsamples = 7\nvalue = [7, 0]"] ;
224 -> 225 ;
226 [label="gini = 0.0\nsamples = 1\nvalue = [0, 1]"] ;
224 -> 226 ;
227 [label="hour_3 <= 0.5\ngini = 0.245\nsamples = 7\nvalue = [6, 1]"] ;
85 -> 227 ;
228 [label="gini = 0.0\nsamples = 6\nvalue = [6, 0]"] ;
227 -> 228 ;
229 [label="gini = 0.0\nsamples = 1\nvalue = [0, 1]"] ;
227 -> 229 ;
230 [label="hour_13 <= 0.5\ngini = 0.245\nsamples = 7\nvalue = [6, 1]"] ;
84 -> 230 ;
231 [label="gini = 0.0\nsamples = 6\nvalue = [6, 0]"] ;
230 -> 231 ;
232 [label="gini = 0.0\nsamples = 1\nvalue = [0, 1]"] ;
230 -> 232 ;
233 [label="day_of_week_4 <= 0.5\ngini = 0.245\nsamples = 7\nvalue = [6, 1]"] ;
83 -> 233 ;
234 [label="gini = 0.0\nsamples = 6\nvalue = [6, 0]"] ;
233 -> 234 ;
235 [label="gini = 0.0\nsamples = 1\nvalue = [0, 1]"] ;
233 -> 235 ;
236 [label="hour_21 <= 0.5\ngini = 0.245\nsamples = 7\nvalue = [6, 1]"] ;
82 -> 236 ;
237 [label="gini = 0.0\nsamples = 5\nvalue = [5, 0]"] ;
236 -> 237 ;
238 [label="day_of_week_3 <= 0.5\ngini = 0.5\nsamples = 2\nvalue = [1, 1]"] ;
236 -> 238 ;
239 [label="gini = 0.0\nsamples = 1\nvalue = [0, 1]"] ;
238 -> 239 ;
240 [label="gini = 0.0\nsamples = 1\nvalue = [1, 0]"] ;
238 -> 240 ;
241 [label="hour_16 <= 0.5\ngini = 0.278\nsamples = 6\nvalue = [5, 1]"] ;
81 -> 241 ;
242 [label="gini = 0.0\nsamples = 5\nvalue = [5, 0]"] ;
241 -> 242 ;
243 [label="gini = 0.0\nsamples = 1\nvalue = [0, 1]"] ;
241 -> 243 ;
244 [label="day_of_week_0 <= 0.5\ngini = 0.278\nsamples = 6\nvalue = [5, 1]"] ;
80 -> 244 ;
245 [label="gini = 0.0\nsamples = 5\nvalue = [5, 0]"] ;
244 -> 245 ;
246 [label="gini = 0.0\nsamples = 1\nvalue = [0, 1]"] ;
244 -> 246 ;
247 [label="hour_19 <= 0.5\ngini = 0.278\nsamples = 6\nvalue = [5, 1]"] ;
79 -> 247 ;
248 [label="gini = 0.0\nsamples = 5\nvalue = [5, 0]"] ;
247 -> 248 ;
249 [label="gini = 0.0\nsamples = 1\nvalue = [0, 1]"] ;
247 -> 249 ;
250 [label="Problem_BBQ - Unsafe Cooking <= 0.5\ngini = 0.278\nsamples = 6\nvalue = [5, 1]"] ;
78 -> 250 ;
251 [label="gini = 0.0\nsamples = 5\nvalue = [5, 0]"] ;
250 -> 251 ;
252 [label="gini = 0.0\nsamples = 1\nvalue = [0, 1]"] ;
250 -> 252 ;
253 [label="hour_8 <= 0.5\ngini = 0.198\nsamples = 18\nvalue = [16, 2]"] ;
77 -> 253 ;
254 [label="gini = 0.0\nsamples = 15\nvalue = [15, 0]"] ;
253 -> 254 ;
255 [label="day_of_week_0 <= 0.5\ngini = 0.444\nsamples = 3\nvalue = [1, 2]"] ;
253 -> 255 ;
256 [label="gini = 0.0\nsamples = 2\nvalue = [0, 2]"] ;
255 -> 256 ;
257 [label="gini = 0.0\nsamples = 1\nvalue = [1, 0]"] ;
255 -> 257 ;
258 [label="hour_14 <= 0.5\ngini = 0.165\nsamples = 33\nvalue = [30, 3]"] ;
76 -> 258 ;
259 [label="day_of_week_1 <= 0.5\ngini = 0.121\nsamples = 31\nvalue = [29, 2]"] ;
258 -> 259 ;
260 [label="gini = 0.0\nsamples = 24\nvalue = [24, 0]"] ;
259 -> 260 ;
261 [label="hour_15 <= 0.5\ngini = 0.408\nsamples = 7\nvalue = [5, 2]"] ;
259 -> 261 ;
262 [label="Problem_TRASH - Trash Fire <= 0.5\ngini = 0.278\nsamples = 6\nvalue = [5, 1]"] ;
261 -> 262 ;
263 [label="gini = 0.0\nsamples = 5\nvalue = [5, 0]"] ;
262 -> 263 ;
264 [label="gini = 0.0\nsamples = 1\nvalue = [0, 1]"] ;
262 -> 264 ;
265 [label="gini = 0.0\nsamples = 1\nvalue = [0, 1]"] ;
261 -> 265 ;
266 [label="Problem_TRASH - Trash Fire <= 0.5\ngini = 0.5\nsamples = 2\nvalue = [1, 1]"] ;
258 -> 266 ;
267 [label="gini = 0.0\nsamples = 1\nvalue = [0, 1]"] ;
266 -> 267 ;
268 [label="gini = 0.0\nsamples = 1\nvalue = [1, 0]"] ;
266 -> 268 ;
269 [label="day_of_week_3 <= 0.5\ngini = 0.32\nsamples = 5\nvalue = [4, 1]"] ;
75 -> 269 ;
270 [label="gini = 0.0\nsamples = 4\nvalue = [4, 0]"] ;
269 -> 270 ;
271 [label="gini = 0.0\nsamples = 1\nvalue = [0, 1]"] ;
269 -> 271 ;
272 [label="hour_9 <= 0.5\ngini = 0.231\nsamples = 15\nvalue = [13, 2]"] ;
74 -> 272 ;
273 [label="hour_6 <= 0.5\ngini = 0.133\nsamples = 14\nvalue = [13, 1]"] ;
272 -> 273 ;
274 [label="gini = 0.0\nsamples = 13\nvalue = [13, 0]"] ;
273 -> 274 ;
275 [label="gini = 0.0\nsamples = 1\nvalue = [0, 1]"] ;
273 -> 275 ;
276 [label="gini = 0.0\nsamples = 1\nvalue = [0, 1]"] ;
272 -> 276 ;
277 [label="hour_0 <= 0.5\ngini = 0.231\nsamples = 15\nvalue = [13, 2]"] ;
73 -> 277 ;
278 [label="hour_14 <= 0.5\ngini = 0.133\nsamples = 14\nvalue = [13, 1]"] ;
277 -> 278 ;
279 [label="gini = 0.0\nsamples = 13\nvalue = [13, 0]"] ;
278 -> 279 ;
280 [label="gini = 0.0\nsamples = 1\nvalue = [0, 1]"] ;
278 -> 280 ;
281 [label="gini = 0.0\nsamples = 1\nvalue = [0, 1]"] ;
277 -> 281 ;
282 [label="day_of_week_3 <= 0.5\ngini = 0.444\nsamples = 3\nvalue = [2, 1]"] ;
72 -> 282 ;
283 [label="gini = 0.0\nsamples = 2\nvalue = [2, 0]"] ;
282 -> 283 ;
284 [label="gini = 0.0\nsamples = 1\nvalue = [0, 1]"] ;
282 -> 284 ;
285 [label="ResponseArea_00-1404 <= 0.5\ngini = 0.116\nsamples = 275\nvalue = [258, 17]"] ;
71 -> 285 ;
286 [label="ResponseArea_00-2101 <= 0.5\ngini = 0.11\nsamples = 274\nvalue = [258, 16]"] ;
285 -> 286 ;
287 [label="ResponseArea_00-2902 <= 0.5\ngini = 0.104\nsamples = 273\nvalue = [258, 15]"] ;
286 -> 287 ;
288 [label="ResponseArea_00-3005 <= 0.5\ngini = 0.098\nsamples = 272\nvalue = [258, 14]"] ;
287 -> 288 ;
289 [label="ResponseArea_00-2501 <= 0.5\ngini = 0.091\nsamples = 271\nvalue = [258, 13]"] ;
288 -> 289 ;
290 [label="ResponseArea_00-3703 <= 0.5\ngini = 0.079\nsamples = 266\nvalue = [255, 11]"] ;
289 -> 290 ;
291 [label="ResponseArea_00-0401 <= 0.5\ngini = 0.073\nsamples = 264\nvalue = [254, 10]"] ;
290 -> 291 ;
292 [label="ResponseArea_00-1504 <= 0.5\ngini = 0.066\nsamples = 262\nvalue = [253, 9]"] ;
291 -> 292 ;
293 [label="ResponseArea_00-2005 <= 0.5\ngini = 0.054\nsamples = 254\nvalue = [247, 7]"] ;
292 -> 293 ;
294 [label="ResponseArea_00-0804 <= 0.5\ngini = 0.047\nsamples = 251\nvalue = [245, 6]"] ;
293 -> 294 ;
295 [label="ResponseArea_00-4201 <= 0.5\ngini = 0.04\nsamples = 248\nvalue = [243, 5]"] ;
294 -> 295 ;
296 [label="ResponseArea_00-2301 <= 0.5\ngini = 0.032\nsamples = 245\nvalue = [241, 4]"] ;
295 -> 296 ;
297 [label="ResponseArea_00-0501 <= 0.5\ngini = 0.025\nsamples = 241\nvalue = [238, 3]"] ;
296 -> 297 ;
298 [label="ResponseArea_00-2803 <= 0.5\ngini = 0.017\nsamples = 237\nvalue = [235, 2]"] ;
297 -> 298 ;
299 [label="ResponseArea_00-4403 <= 0.5\ngini = 0.009\nsamples = 232\nvalue = [231, 1]"] ;
298 -> 299 ;
300 [label="gini = 0.0\nsamples = 227\nvalue = [227, 0]"] ;
299 -> 300 ;
301 [label="hour_18 <= 0.5\ngini = 0.32\nsamples = 5\nvalue = [4, 1]"] ;
299 -> 301 ;
302 [label="gini = 0.0\nsamples = 4\nvalue = [4, 0]"] ;
301 -> 302 ;
303 [label="gini = 0.0\nsamples = 1\nvalue = [0, 1]"] ;
301 -> 303 ;
304 [label="hour_15 <= 0.5\ngini = 0.32\nsamples = 5\nvalue = [4, 1]"] ;
298 -> 304 ;
305 [label="gini = 0.0\nsamples = 4\nvalue = [4, 0]"] ;
304 -> 305 ;
306 [label="gini = 0.0\nsamples = 1\nvalue = [0, 1]"] ;
304 -> 306 ;
307 [label="hour_11 <= 0.5\ngini = 0.375\nsamples = 4\nvalue = [3, 1]"] ;
297 -> 307 ;
308 [label="gini = 0.0\nsamples = 3\nvalue = [3, 0]"] ;
307 -> 308 ;
309 [label="gini = 0.0\nsamples = 1\nvalue = [0, 1]"] ;
307 -> 309 ;
310 [label="hour_21 <= 0.5\ngini = 0.375\nsamples = 4\nvalue = [3, 1]"] ;
296 -> 310 ;
311 [label="gini = 0.0\nsamples = 3\nvalue = [3, 0]"] ;
310 -> 311 ;
312 [label="gini = 0.0\nsamples = 1\nvalue = [0, 1]"] ;
310 -> 312 ;
313 [label="hour_15 <= 0.5\ngini = 0.444\nsamples = 3\nvalue = [2, 1]"] ;
295 -> 313 ;
314 [label="gini = 0.0\nsamples = 2\nvalue = [2, 0]"] ;
313 -> 314 ;
315 [label="gini = 0.0\nsamples = 1\nvalue = [0, 1]"] ;
313 -> 315 ;
316 [label="hour_10 <= 0.5\ngini = 0.444\nsamples = 3\nvalue = [2, 1]"] ;
294 -> 316 ;
317 [label="gini = 0.0\nsamples = 2\nvalue = [2, 0]"] ;
316 -> 317 ;
318 [label="gini = 0.0\nsamples = 1\nvalue = [0, 1]"] ;
316 -> 318 ;
319 [label="Problem_ELEC - Electrical Fire <= 0.5\ngini = 0.444\nsamples = 3\nvalue = [2, 1]"] ;
293 -> 319 ;
320 [label="gini = 0.0\nsamples = 1\nvalue = [0, 1]"] ;
319 -> 320 ;
321 [label="gini = 0.0\nsamples = 2\nvalue = [2, 0]"] ;
319 -> 321 ;
322 [label="hour_0 <= 0.5\ngini = 0.375\nsamples = 8\nvalue = [6, 2]"] ;
292 -> 322 ;
323 [label="hour_19 <= 0.5\ngini = 0.245\nsamples = 7\nvalue = [6, 1]"] ;
322 -> 323 ;
324 [label="gini = 0.0\nsamples = 5\nvalue = [5, 0]"] ;
323 -> 324 ;
325 [label="gini = 0.5\nsamples = 2\nvalue = [1, 1]"] ;
323 -> 325 ;
326 [label="gini = 0.0\nsamples = 1\nvalue = [0, 1]"] ;
322 -> 326 ;
327 [label="hour_21 <= 0.5\ngini = 0.5\nsamples = 2\nvalue = [1, 1]"] ;
291 -> 327 ;
328 [label="gini = 0.0\nsamples = 1\nvalue = [1, 0]"] ;
327 -> 328 ;
329 [label="gini = 0.0\nsamples = 1\nvalue = [0, 1]"] ;
327 -> 329 ;
330 [label="hour_15 <= 0.5\ngini = 0.5\nsamples = 2\nvalue = [1, 1]"] ;
290 -> 330 ;
331 [label="gini = 0.0\nsamples = 1\nvalue = [1, 0]"] ;
330 -> 331 ;
332 [label="gini = 0.0\nsamples = 1\nvalue = [0, 1]"] ;
330 -> 332 ;
333 [label="hour_10 <= 0.5\ngini = 0.48\nsamples = 5\nvalue = [3, 2]"] ;
289 -> 333 ;
334 [label="hour_22 <= 0.5\ngini = 0.444\nsamples = 3\nvalue = [1, 2]"] ;
333 -> 334 ;
335 [label="gini = 0.0\nsamples = 2\nvalue = [0, 2]"] ;
334 -> 335 ;
336 [label="gini = 0.0\nsamples = 1\nvalue = [1, 0]"] ;
334 -> 336 ;
337 [label="gini = 0.0\nsamples = 2\nvalue = [2, 0]"] ;
333 -> 337 ;
338 [label="gini = 0.0\nsamples = 1\nvalue = [0, 1]"] ;
288 -> 338 ;
339 [label="gini = 0.0\nsamples = 1\nvalue = [0, 1]"] ;
287 -> 339 ;
340 [label="gini = 0.0\nsamples = 1\nvalue = [0, 1]"] ;
286 -> 340 ;
341 [label="gini = 0.0\nsamples = 1\nvalue = [0, 1]"] ;
285 -> 341 ;
342 [label="day_of_week_1 <= 0.5\ngini = 0.375\nsamples = 4\nvalue = [3, 1]"] ;
70 -> 342 ;
343 [label="gini = 0.0\nsamples = 3\nvalue = [3, 0]"] ;
342 -> 343 ;
344 [label="gini = 0.0\nsamples = 1\nvalue = [0, 1]"] ;
342 -> 344 ;
345 [label="hour_5 <= 0.5\ngini = 0.375\nsamples = 4\nvalue = [3, 1]"] ;
69 -> 345 ;
346 [label="gini = 0.0\nsamples = 3\nvalue = [3, 0]"] ;
345 -> 346 ;
347 [label="gini = 0.0\nsamples = 1\nvalue = [0, 1]"] ;
345 -> 347 ;
348 [label="day_of_week_1 <= 0.5\ngini = 0.298\nsamples = 11\nvalue = [9, 2]"] ;
68 -> 348 ;
349 [label="hour_5 <= 0.5\ngini = 0.18\nsamples = 10\nvalue = [9, 1]"] ;
348 -> 349 ;
350 [label="gini = 0.0\nsamples = 9\nvalue = [9, 0]"] ;
349 -> 350 ;
351 [label="gini = 0.0\nsamples = 1\nvalue = [0, 1]"] ;
349 -> 351 ;
352 [label="gini = 0.0\nsamples = 1\nvalue = [0, 1]"] ;
348 -> 352 ;
353 [label="day_of_week_3 <= 0.5\ngini = 0.245\nsamples = 21\nvalue = [18, 3]"] ;
67 -> 353 ;
354 [label="hour_11 <= 0.5\ngini = 0.1\nsamples = 19\nvalue = [18, 1]"] ;
353 -> 354 ;
355 [label="gini = 0.0\nsamples = 18\nvalue = [18, 0]"] ;
354 -> 355 ;
356 [label="gini = 0.0\nsamples = 1\nvalue = [0, 1]"] ;
354 -> 356 ;
357 [label="gini = 0.0\nsamples = 2\nvalue = [0, 2]"] ;
353 -> 357 ;
358 [label="hour_10 <= 0.5\ngini = 0.444\nsamples = 3\nvalue = [2, 1]"] ;
66 -> 358 ;
359 [label="gini = 0.0\nsamples = 2\nvalue = [2, 0]"] ;
358 -> 359 ;
360 [label="gini = 0.0\nsamples = 1\nvalue = [0, 1]"] ;
358 -> 360 ;
361 [label="day_of_week_5 <= 0.5\ngini = 0.266\nsamples = 19\nvalue = [16, 3]"] ;
65 -> 361 ;
362 [label="gini = 0.0\nsamples = 12\nvalue = [12, 0]"] ;
361 -> 362 ;
363 [label="hour_21 <= 0.5\ngini = 0.49\nsamples = 7\nvalue = [4, 3]"] ;
361 -> 363 ;
364 [label="hour_19 <= 0.5\ngini = 0.48\nsamples = 5\nvalue = [2, 3]"] ;
363 -> 364 ;
365 [label="hour_12 <= 0.5\ngini = 0.375\nsamples = 4\nvalue = [1, 3]"] ;
364 -> 365 ;
366 [label="gini = 0.0\nsamples = 3\nvalue = [0, 3]"] ;
365 -> 366 ;
367 [label="gini = 0.0\nsamples = 1\nvalue = [1, 0]"] ;
365 -> 367 ;
368 [label="gini = 0.0\nsamples = 1\nvalue = [1, 0]"] ;
364 -> 368 ;
369 [label="gini = 0.0\nsamples = 2\nvalue = [2, 0]"] ;
363 -> 369 ;
370 [label="day_of_week_4 <= 0.5\ngini = 0.444\nsamples = 3\nvalue = [2, 1]"] ;
64 -> 370 ;
371 [label="gini = 0.0\nsamples = 2\nvalue = [2, 0]"] ;
370 -> 371 ;
372 [label="gini = 0.0\nsamples = 1\nvalue = [0, 1]"] ;
370 -> 372 ;
373 [label="Problem_BOXL- Structure Fire <= 0.5\ngini = 0.444\nsamples = 3\nvalue = [2, 1]"] ;
63 -> 373 ;
374 [label="gini = 0.0\nsamples = 2\nvalue = [2, 0]"] ;
373 -> 374 ;
375 [label="gini = 0.0\nsamples = 1\nvalue = [0, 1]"] ;
373 -> 375 ;
376 [label="hour_19 <= 0.5\ngini = 0.444\nsamples = 3\nvalue = [2, 1]"] ;
62 -> 376 ;
377 [label="gini = 0.0\nsamples = 2\nvalue = [2, 0]"] ;
376 -> 377 ;
378 [label="gini = 0.0\nsamples = 1\nvalue = [0, 1]"] ;
376 -> 378 ;
379 [label="hour_5 <= 0.5\ngini = 0.278\nsamples = 18\nvalue = [15, 3]"] ;
61 -> 379 ;
380 [label="hour_14 <= 0.5\ngini = 0.208\nsamples = 17\nvalue = [15, 2]"] ;
379 -> 380 ;
381 [label="day_of_week_1 <= 0.5\ngini = 0.117\nsamples = 16\nvalue = [15, 1]"] ;
380 -> 381 ;
382 [label="gini = 0.0\nsamples = 13\nvalue = [13, 0]"] ;
381 -> 382 ;
383 [label="hour_22 <= 0.5\ngini = 0.444\nsamples = 3\nvalue = [2, 1]"] ;
381 -> 383 ;
384 [label="gini = 0.0\nsamples = 2\nvalue = [2, 0]"] ;
383 -> 384 ;
385 [label="gini = 0.0\nsamples = 1\nvalue = [0, 1]"] ;
383 -> 385 ;
386 [label="gini = 0.0\nsamples = 1\nvalue = [0, 1]"] ;
380 -> 386 ;
387 [label="gini = 0.0\nsamples = 1\nvalue = [0, 1]"] ;
379 -> 387 ;
388 [label="hour_15 <= 0.5\ngini = 0.346\nsamples = 9\nvalue = [7, 2]"] ;
60 -> 388 ;
389 [label="hour_18 <= 0.5\ngini = 0.219\nsamples = 8\nvalue = [7, 1]"] ;
388 -> 389 ;
390 [label="gini = 0.0\nsamples = 7\nvalue = [7, 0]"] ;
389 -> 390 ;
391 [label="gini = 0.0\nsamples = 1\nvalue = [0, 1]"] ;
389 -> 391 ;
392 [label="gini = 0.0\nsamples = 1\nvalue = [0, 1]"] ;
388 -> 392 ;
393 [label="day_of_week_2 <= 0.5\ngini = 0.5\nsamples = 2\nvalue = [1, 1]"] ;
59 -> 393 ;
394 [label="gini = 0.0\nsamples = 1\nvalue = [0, 1]"] ;
393 -> 394 ;
395 [label="gini = 0.0\nsamples = 1\nvalue = [1, 0]"] ;
393 -> 395 ;
396 [label="gini = 0.0\nsamples = 1\nvalue = [0, 1]"] ;
58 -> 396 ;
397 [label="ResponseArea_00-17SV <= 0.5\ngini = 0.127\nsamples = 794\nvalue = [740, 54]"] ;
57 -> 397 ;
398 [label="ResponseArea_00-3605 <= 0.5\ngini = 0.125\nsamples = 793\nvalue = [740, 53]"] ;
397 -> 398 ;
399 [label="ResponseArea_00-2807 <= 0.5\ngini = 0.121\nsamples = 788\nvalue = [737, 51]"] ;
398 -> 399 ;
400 [label="ResponseArea_00-4203 <= 0.5\ngini = 0.119\nsamples = 786\nvalue = [736, 50]"] ;
399 -> 400 ;
401 [label="ResponseArea_00-4302 <= 0.5\ngini = 0.117\nsamples = 784\nvalue = [735, 49]"] ;
400 -> 401 ;
402 [label="ResponseArea_00-2101 <= 0.5\ngini = 0.115\nsamples = 782\nvalue = [734, 48]"] ;
401 -> 402 ;
403 [label="ResponseArea_00-4001 <= 0.5\ngini = 0.112\nsamples = 775\nvalue = [729, 46]"] ;
402 -> 403 ;
404 [label="ResponseArea_00-3401 <= 0.5\ngini = 0.107\nsamples = 761\nvalue = [718, 43]"] ;
403 -> 404 ;
405 [label="ResponseArea_00-3001 <= 0.5\ngini = 0.103\nsamples = 753\nvalue = [712, 41]"] ;
404 -> 405 ;
406 [label="ResponseArea_00-4401 <= 0.5\ngini = 0.099\nsamples = 744\nvalue = [705, 39]"] ;
405 -> 406 ;
407 [label="ResponseArea_00-2706 <= 0.5\ngini = 0.097\nsamples = 741\nvalue = [703, 38]"] ;
406 -> 407 ;
408 [label="ResponseArea_00-3502 <= 0.5\ngini = 0.095\nsamples = 738\nvalue = [701, 37]"] ;
407 -> 408 ;
409 [label="ResponseArea_00-1804 <= 0.5\ngini = 0.092\nsamples = 726\nvalue = [691, 35]"] ;
408 -> 409 ;
410 [label="ResponseArea_00-2501 <= 0.5\ngini = 0.088\nsamples = 714\nvalue = [681, 33]"] ;
409 -> 410 ;
411 [label="ResponseArea_00-1206 <= 0.5\ngini = 0.084\nsamples = 702\nvalue = [671, 31]"] ;
410 -> 411 ;
412 [label="ResponseArea_00-3201 <= 0.5\ngini = 0.082\nsamples = 698\nvalue = [668, 30]"] ;
411 -> 412 ;
413 [label="ResponseArea_00-2301 <= 0.5\ngini = 0.08\nsamples = 694\nvalue = [665, 29]"] ;
412 -> 413 ;
414 [label="ResponseArea_00-2202 <= 0.5\ngini = 0.076\nsamples = 680\nvalue = [653, 27]"] ;
413 -> 414 ;
415 [label="ResponseArea_00-0601 <= 0.5\ngini = 0.072\nsamples = 666\nvalue = [641, 25]"] ;
414 -> 415 ;
416 [label="ResponseArea_00-0807 <= 0.5\ngini = 0.068\nsamples = 652\nvalue = [629, 23]"] ;
415 -> 416 ;
417 [label="hour_0 <= 0.5\ngini = 0.064\nsamples = 637\nvalue = [616, 21]"] ;
416 -> 417 ;
418 [label="ResponseArea_00-2303 <= 0.5\ngini = 0.059\nsamples = 622\nvalue = [603, 19]"] ;
417 -> 418 ;
419 [label="ResponseArea_00-0806 <= 0.5\ngini = 0.057\nsamples = 617\nvalue = [599, 18]"] ;
418 -> 419 ;
420 [label="ResponseArea_00-0504 <= 0.5\ngini = 0.054\nsamples = 612\nvalue = [595, 17]"] ;
419 -> 420 ;
421 [label="ResponseArea_00-1803 <= 0.5\ngini = 0.051\nsamples = 607\nvalue = [591, 16]"] ;
420 -> 421 ;
422 [label="ResponseArea_00-3002 <= 0.5\ngini = 0.046\nsamples = 589\nvalue = [575, 14]"] ;
421 -> 422 ;
423 [label="ResponseArea_00-2705 <= 0.5\ngini = 0.044\nsamples = 583\nvalue = [570, 13]"] ;
422 -> 423 ;
424 [label="ResponseArea_00-0501 <= 0.5\ngini = 0.041\nsamples = 577\nvalue = [565, 12]"] ;
423 -> 424 ;
425 [label="ResponseArea_00-1708 <= 0.5\ngini = 0.038\nsamples = 571\nvalue = [560, 11]"] ;
424 -> 425 ;
426 [label="ResponseArea_00-0102 <= 0.5\ngini = 0.035\nsamples = 565\nvalue = [555, 10]"] ;
425 -> 426 ;
427 [label="ResponseArea_00-0302 <= 0.5\ngini = 0.032\nsamples = 558\nvalue = [549, 9]"] ;
426 -> 427 ;
428 [label="ResponseArea_00-1502 <= 0.5\ngini = 0.029\nsamples = 551\nvalue = [543, 8]"] ;
427 -> 428 ;
429 [label="ResponseArea_00-1706 <= 0.5\ngini = 0.025\nsamples = 544\nvalue = [537, 7]"] ;
428 -> 429 ;
430 [label="ResponseArea_00-3501 <= 0.5\ngini = 0.022\nsamples = 537\nvalue = [531, 6]"] ;
429 -> 430 ;
431 [label="ResponseArea_00-1710 <= 0.5\ngini = 0.019\nsamples = 529\nvalue = [524, 5]"] ;
430 -> 431 ;
432 [label="ResponseArea_00-1802 <= 0.5\ngini = 0.015\nsamples = 521\nvalue = [517, 4]"] ;
431 -> 432 ;
433 [label="ResponseArea_00-2502 <= 0.5\ngini = 0.012\nsamples = 513\nvalue = [510, 3]"] ;
432 -> 433 ;
434 [label="ResponseArea_00-2304 <= 0.5\ngini = 0.008\nsamples = 504\nvalue = [502, 2]"] ;
433 -> 434 ;
435 [label="ResponseArea_00-2305 <= 0.5\ngini = 0.004\nsamples = 495\nvalue = [494, 1]"] ;
434 -> 435 ;
436 [label="gini = 0.0\nsamples = 482\nvalue = [482, 0]"] ;
435 -> 436 ;
437 [label="hour_8 <= 0.5\ngini = 0.142\nsamples = 13\nvalue = [12, 1]"] ;
435 -> 437 ;
438 [label="gini = 0.0\nsamples = 10\nvalue = [10, 0]"] ;
437 -> 438 ;
439 [label="day_of_week_3 <= 0.5\ngini = 0.444\nsamples = 3\nvalue = [2, 1]"] ;
437 -> 439 ;
440 [label="gini = 0.5\nsamples = 2\nvalue = [1, 1]"] ;
439 -> 440 ;
441 [label="gini = 0.0\nsamples = 1\nvalue = [1, 0]"] ;
439 -> 441 ;
442 [label="hour_11 <= 0.5\ngini = 0.198\nsamples = 9\nvalue = [8, 1]"] ;
434 -> 442 ;
443 [label="gini = 0.0\nsamples = 8\nvalue = [8, 0]"] ;
442 -> 443 ;
444 [label="gini = 0.0\nsamples = 1\nvalue = [0, 1]"] ;
442 -> 444 ;
445 [label="hour_13 <= 0.5\ngini = 0.198\nsamples = 9\nvalue = [8, 1]"] ;
433 -> 445 ;
446 [label="gini = 0.0\nsamples = 8\nvalue = [8, 0]"] ;
445 -> 446 ;
447 [label="gini = 0.0\nsamples = 1\nvalue = [0, 1]"] ;
445 -> 447 ;
448 [label="hour_15 <= 0.5\ngini = 0.219\nsamples = 8\nvalue = [7, 1]"] ;
432 -> 448 ;
449 [label="gini = 0.0\nsamples = 7\nvalue = [7, 0]"] ;
448 -> 449 ;
450 [label="gini = 0.0\nsamples = 1\nvalue = [0, 1]"] ;
448 -> 450 ;
451 [label="hour_18 <= 0.5\ngini = 0.219\nsamples = 8\nvalue = [7, 1]"] ;
431 -> 451 ;
452 [label="gini = 0.0\nsamples = 7\nvalue = [7, 0]"] ;
451 -> 452 ;
453 [label="gini = 0.0\nsamples = 1\nvalue = [0, 1]"] ;
451 -> 453 ;
454 [label="hour_10 <= 0.5\ngini = 0.219\nsamples = 8\nvalue = [7, 1]"] ;
430 -> 454 ;
455 [label="gini = 0.0\nsamples = 7\nvalue = [7, 0]"] ;
454 -> 455 ;
456 [label="gini = 0.0\nsamples = 1\nvalue = [0, 1]"] ;
454 -> 456 ;
457 [label="hour_22 <= 0.5\ngini = 0.245\nsamples = 7\nvalue = [6, 1]"] ;
429 -> 457 ;
458 [label="gini = 0.0\nsamples = 6\nvalue = [6, 0]"] ;
457 -> 458 ;
459 [label="gini = 0.0\nsamples = 1\nvalue = [0, 1]"] ;
457 -> 459 ;
460 [label="hour_18 <= 0.5\ngini = 0.245\nsamples = 7\nvalue = [6, 1]"] ;
428 -> 460 ;
461 [label="gini = 0.0\nsamples = 6\nvalue = [6, 0]"] ;
460 -> 461 ;
462 [label="gini = 0.0\nsamples = 1\nvalue = [0, 1]"] ;
460 -> 462 ;
463 [label="hour_8 <= 0.5\ngini = 0.245\nsamples = 7\nvalue = [6, 1]"] ;
427 -> 463 ;
464 [label="gini = 0.0\nsamples = 6\nvalue = [6, 0]"] ;
463 -> 464 ;
465 [label="gini = 0.0\nsamples = 1\nvalue = [0, 1]"] ;
463 -> 465 ;
466 [label="hour_13 <= 0.5\ngini = 0.245\nsamples = 7\nvalue = [6, 1]"] ;
426 -> 466 ;
467 [label="gini = 0.0\nsamples = 6\nvalue = [6, 0]"] ;
466 -> 467 ;
468 [label="gini = 0.0\nsamples = 1\nvalue = [0, 1]"] ;
466 -> 468 ;
469 [label="hour_21 <= 0.5\ngini = 0.278\nsamples = 6\nvalue = [5, 1]"] ;
425 -> 469 ;
470 [label="gini = 0.0\nsamples = 5\nvalue = [5, 0]"] ;
469 -> 470 ;
471 [label="gini = 0.0\nsamples = 1\nvalue = [0, 1]"] ;
469 -> 471 ;
472 [label="day_of_week_4 <= 0.5\ngini = 0.278\nsamples = 6\nvalue = [5, 1]"] ;
424 -> 472 ;
473 [label="gini = 0.0\nsamples = 4\nvalue = [4, 0]"] ;
472 -> 473 ;
474 [label="hour_11 <= 0.5\ngini = 0.5\nsamples = 2\nvalue = [1, 1]"] ;
472 -> 474 ;
475 [label="gini = 0.0\nsamples = 1\nvalue = [1, 0]"] ;
474 -> 475 ;
476 [label="gini = 0.0\nsamples = 1\nvalue = [0, 1]"] ;
474 -> 476 ;
477 [label="hour_16 <= 0.5\ngini = 0.278\nsamples = 6\nvalue = [5, 1]"] ;
423 -> 477 ;
478 [label="gini = 0.0\nsamples = 3\nvalue = [3, 0]"] ;
477 -> 478 ;
479 [label="gini = 0.444\nsamples = 3\nvalue = [2, 1]"] ;
477 -> 479 ;
480 [label="hour_9 <= 0.5\ngini = 0.278\nsamples = 6\nvalue = [5, 1]"] ;
422 -> 480 ;
481 [label="gini = 0.0\nsamples = 4\nvalue = [4, 0]"] ;
480 -> 481 ;
482 [label="day_of_week_5 <= 0.5\ngini = 0.5\nsamples = 2\nvalue = [1, 1]"] ;
480 -> 482 ;
483 [label="gini = 0.0\nsamples = 1\nvalue = [1, 0]"] ;
482 -> 483 ;
484 [label="gini = 0.0\nsamples = 1\nvalue = [0, 1]"] ;
482 -> 484 ;
485 [label="hour_19 <= 0.5\ngini = 0.198\nsamples = 18\nvalue = [16, 2]"] ;
421 -> 485 ;
486 [label="hour_8 <= 0.5\ngini = 0.117\nsamples = 16\nvalue = [15, 1]"] ;
485 -> 486 ;
487 [label="gini = 0.0\nsamples = 14\nvalue = [14, 0]"] ;
486 -> 487 ;
488 [label="day_of_week_0 <= 0.5\ngini = 0.5\nsamples = 2\nvalue = [1, 1]"] ;
486 -> 488 ;
489 [label="gini = 0.0\nsamples = 1\nvalue = [0, 1]"] ;
488 -> 489 ;
490 [label="gini = 0.0\nsamples = 1\nvalue = [1, 0]"] ;
488 -> 490 ;
491 [label="gini = 0.5\nsamples = 2\nvalue = [1, 1]"] ;
485 -> 491 ;
492 [label="day_of_week_4 <= 0.5\ngini = 0.32\nsamples = 5\nvalue = [4, 1]"] ;
420 -> 492 ;
493 [label="gini = 0.0\nsamples = 3\nvalue = [3, 0]"] ;
492 -> 493 ;
494 [label="gini = 0.5\nsamples = 2\nvalue = [1, 1]"] ;
492 -> 494 ;
495 [label="hour_10 <= 0.5\ngini = 0.32\nsamples = 5\nvalue = [4, 1]"] ;
419 -> 495 ;
496 [label="gini = 0.0\nsamples = 4\nvalue = [4, 0]"] ;
495 -> 496 ;
497 [label="gini = 0.0\nsamples = 1\nvalue = [0, 1]"] ;
495 -> 497 ;
498 [label="day_of_week_1 <= 0.5\ngini = 0.32\nsamples = 5\nvalue = [4, 1]"] ;
418 -> 498 ;
499 [label="gini = 0.0\nsamples = 3\nvalue = [3, 0]"] ;
498 -> 499 ;
500 [label="hour_12 <= 0.5\ngini = 0.5\nsamples = 2\nvalue = [1, 1]"] ;
498 -> 500 ;
501 [label="gini = 0.0\nsamples = 1\nvalue = [1, 0]"] ;
500 -> 501 ;
502 [label="gini = 0.0\nsamples = 1\nvalue = [0, 1]"] ;
500 -> 502 ;
503 [label="day_of_week_2 <= 0.5\ngini = 0.231\nsamples = 15\nvalue = [13, 2]"] ;
417 -> 503 ;
504 [label="gini = 0.0\nsamples = 12\nvalue = [12, 0]"] ;
503 -> 504 ;
505 [label="ResponseArea_00-2002 <= 0.5\ngini = 0.444\nsamples = 3\nvalue = [1, 2]"] ;
503 -> 505 ;
506 [label="gini = 0.0\nsamples = 2\nvalue = [0, 2]"] ;
505 -> 506 ;
507 [label="gini = 0.0\nsamples = 1\nvalue = [1, 0]"] ;
505 -> 507 ;
508 [label="day_of_week_0 <= 0.5\ngini = 0.231\nsamples = 15\nvalue = [13, 2]"] ;
416 -> 508 ;
509 [label="day_of_week_1 <= 0.5\ngini = 0.133\nsamples = 14\nvalue = [13, 1]"] ;
508 -> 509 ;
510 [label="gini = 0.0\nsamples = 12\nvalue = [12, 0]"] ;
509 -> 510 ;
511 [label="hour_16 <= 0.5\ngini = 0.5\nsamples = 2\nvalue = [1, 1]"] ;
509 -> 511 ;
512 [label="gini = 0.0\nsamples = 1\nvalue = [1, 0]"] ;
511 -> 512 ;
513 [label="gini = 0.0\nsamples = 1\nvalue = [0, 1]"] ;
511 -> 513 ;
514 [label="gini = 0.0\nsamples = 1\nvalue = [0, 1]"] ;
508 -> 514 ;
515 [label="hour_12 <= 0.5\ngini = 0.245\nsamples = 14\nvalue = [12, 2]"] ;
415 -> 515 ;
516 [label="hour_8 <= 0.5\ngini = 0.153\nsamples = 12\nvalue = [11, 1]"] ;
515 -> 516 ;
517 [label="gini = 0.0\nsamples = 10\nvalue = [10, 0]"] ;
516 -> 517 ;
518 [label="day_of_week_2 <= 0.5\ngini = 0.5\nsamples = 2\nvalue = [1, 1]"] ;
516 -> 518 ;
519 [label="gini = 0.0\nsamples = 1\nvalue = [0, 1]"] ;
518 -> 519 ;
520 [label="gini = 0.0\nsamples = 1\nvalue = [1, 0]"] ;
518 -> 520 ;
521 [label="day_of_week_0 <= 0.5\ngini = 0.5\nsamples = 2\nvalue = [1, 1]"] ;
515 -> 521 ;
522 [label="gini = 0.0\nsamples = 1\nvalue = [1, 0]"] ;
521 -> 522 ;
523 [label="gini = 0.0\nsamples = 1\nvalue = [0, 1]"] ;
521 -> 523 ;
524 [label="hour_1 <= 0.5\ngini = 0.245\nsamples = 14\nvalue = [12, 2]"] ;
414 -> 524 ;
525 [label="hour_16 <= 0.5\ngini = 0.142\nsamples = 13\nvalue = [12, 1]"] ;
524 -> 525 ;
526 [label="gini = 0.0\nsamples = 9\nvalue = [9, 0]"] ;
525 -> 526 ;
527 [label="day_of_week_1 <= 0.5\ngini = 0.375\nsamples = 4\nvalue = [3, 1]"] ;
525 -> 527 ;
528 [label="gini = 0.0\nsamples = 2\nvalue = [2, 0]"] ;
527 -> 528 ;
529 [label="gini = 0.5\nsamples = 2\nvalue = [1, 1]"] ;
527 -> 529 ;
530 [label="gini = 0.0\nsamples = 1\nvalue = [0, 1]"] ;
524 -> 530 ;
531 [label="hour_21 <= 0.5\ngini = 0.245\nsamples = 14\nvalue = [12, 2]"] ;
413 -> 531 ;
532 [label="hour_18 <= 0.5\ngini = 0.142\nsamples = 13\nvalue = [12, 1]"] ;
531 -> 532 ;
533 [label="gini = 0.0\nsamples = 11\nvalue = [11, 0]"] ;
532 -> 533 ;
534 [label="day_of_week_2 <= 0.5\ngini = 0.5\nsamples = 2\nvalue = [1, 1]"] ;
532 -> 534 ;
535 [label="gini = 0.0\nsamples = 1\nvalue = [1, 0]"] ;
534 -> 535 ;
536 [label="gini = 0.0\nsamples = 1\nvalue = [0, 1]"] ;
534 -> 536 ;
537 [label="gini = 0.0\nsamples = 1\nvalue = [0, 1]"] ;
531 -> 537 ;
538 [label="hour_15 <= 0.5\ngini = 0.375\nsamples = 4\nvalue = [3, 1]"] ;
412 -> 538 ;
539 [label="gini = 0.0\nsamples = 3\nvalue = [3, 0]"] ;
538 -> 539 ;
540 [label="gini = 0.0\nsamples = 1\nvalue = [0, 1]"] ;
538 -> 540 ;
541 [label="hour_13 <= 0.5\ngini = 0.375\nsamples = 4\nvalue = [3, 1]"] ;
411 -> 541 ;
542 [label="gini = 0.0\nsamples = 3\nvalue = [3, 0]"] ;
541 -> 542 ;
543 [label="gini = 0.0\nsamples = 1\nvalue = [0, 1]"] ;
541 -> 543 ;
544 [label="day_of_week_1 <= 0.5\ngini = 0.278\nsamples = 12\nvalue = [10, 2]"] ;
410 -> 544 ;
545 [label="day_of_week_3 <= 0.5\ngini = 0.18\nsamples = 10\nvalue = [9, 1]"] ;
544 -> 545 ;
546 [label="gini = 0.0\nsamples = 8\nvalue = [8, 0]"] ;
545 -> 546 ;
547 [label="hour_15 <= 0.5\ngini = 0.5\nsamples = 2\nvalue = [1, 1]"] ;
545 -> 547 ;
548 [label="gini = 0.0\nsamples = 1\nvalue = [0, 1]"] ;
547 -> 548 ;
549 [label="gini = 0.0\nsamples = 1\nvalue = [1, 0]"] ;
547 -> 549 ;
550 [label="hour_11 <= 0.5\ngini = 0.5\nsamples = 2\nvalue = [1, 1]"] ;
544 -> 550 ;
551 [label="gini = 0.0\nsamples = 1\nvalue = [0, 1]"] ;
550 -> 551 ;
552 [label="gini = 0.0\nsamples = 1\nvalue = [1, 0]"] ;
550 -> 552 ;
553 [label="hour_19 <= 0.5\ngini = 0.278\nsamples = 12\nvalue = [10, 2]"] ;
409 -> 553 ;
554 [label="hour_14 <= 0.5\ngini = 0.165\nsamples = 11\nvalue = [10, 1]"] ;
553 -> 554 ;
555 [label="gini = 0.0\nsamples = 8\nvalue = [8, 0]"] ;
554 -> 555 ;
556 [label="gini = 0.444\nsamples = 3\nvalue = [2, 1]"] ;
554 -> 556 ;
557 [label="gini = 0.0\nsamples = 1\nvalue = [0, 1]"] ;
553 -> 557 ;
558 [label="hour_10 <= 0.5\ngini = 0.278\nsamples = 12\nvalue = [10, 2]"] ;
408 -> 558 ;
559 [label="day_of_week_5 <= 0.5\ngini = 0.165\nsamples = 11\nvalue = [10, 1]"] ;
558 -> 559 ;
560 [label="gini = 0.0\nsamples = 8\nvalue = [8, 0]"] ;
559 -> 560 ;
561 [label="hour_19 <= 0.5\ngini = 0.444\nsamples = 3\nvalue = [2, 1]"] ;
559 -> 561 ;
562 [label="gini = 0.0\nsamples = 1\nvalue = [1, 0]"] ;
561 -> 562 ;
563 [label="gini = 0.5\nsamples = 2\nvalue = [1, 1]"] ;
561 -> 563 ;
564 [label="gini = 0.0\nsamples = 1\nvalue = [0, 1]"] ;
558 -> 564 ;
565 [label="day_of_week_3 <= 0.5\ngini = 0.444\nsamples = 3\nvalue = [2, 1]"] ;
407 -> 565 ;
566 [label="gini = 0.0\nsamples = 2\nvalue = [2, 0]"] ;
565 -> 566 ;
567 [label="gini = 0.0\nsamples = 1\nvalue = [0, 1]"] ;
565 -> 567 ;
568 [label="day_of_week_5 <= 0.5\ngini = 0.444\nsamples = 3\nvalue = [2, 1]"] ;
406 -> 568 ;
569 [label="gini = 0.0\nsamples = 2\nvalue = [2, 0]"] ;
568 -> 569 ;
570 [label="gini = 0.0\nsamples = 1\nvalue = [0, 1]"] ;
568 -> 570 ;
571 [label="day_of_week_3 <= 0.5\ngini = 0.346\nsamples = 9\nvalue = [7, 2]"] ;
405 -> 571 ;
572 [label="gini = 0.0\nsamples = 4\nvalue = [4, 0]"] ;
571 -> 572 ;
573 [label="hour_21 <= 0.5\ngini = 0.48\nsamples = 5\nvalue = [3, 2]"] ;
571 -> 573 ;
574 [label="hour_16 <= 0.5\ngini = 0.5\nsamples = 4\nvalue = [2, 2]"] ;
573 -> 574 ;
575 [label="gini = 0.5\nsamples = 2\nvalue = [1, 1]"] ;
574 -> 575 ;
576 [label="gini = 0.5\nsamples = 2\nvalue = [1, 1]"] ;
574 -> 576 ;
577 [label="gini = 0.0\nsamples = 1\nvalue = [1, 0]"] ;
573 -> 577 ;
578 [label="day_of_week_4 <= 0.5\ngini = 0.375\nsamples = 8\nvalue = [6, 2]"] ;
404 -> 578 ;
579 [label="gini = 0.0\nsamples = 6\nvalue = [6, 0]"] ;
578 -> 579 ;
580 [label="gini = 0.0\nsamples = 2\nvalue = [0, 2]"] ;
578 -> 580 ;
581 [label="hour_6 <= 0.5\ngini = 0.337\nsamples = 14\nvalue = [11, 3]"] ;
403 -> 581 ;
582 [label="hour_14 <= 0.5\ngini = 0.26\nsamples = 13\nvalue = [11, 2]"] ;
581 -> 582 ;
583 [label="hour_18 <= 0.5\ngini = 0.165\nsamples = 11\nvalue = [10, 1]"] ;
582 -> 583 ;
584 [label="gini = 0.0\nsamples = 8\nvalue = [8, 0]"] ;
583 -> 584 ;
585 [label="day_of_week_5 <= 0.5\ngini = 0.444\nsamples = 3\nvalue = [2, 1]"] ;
583 -> 585 ;
586 [label="gini = 0.5\nsamples = 2\nvalue = [1, 1]"] ;
585 -> 586 ;
587 [label="gini = 0.0\nsamples = 1\nvalue = [1, 0]"] ;
585 -> 587 ;
588 [label="day_of_week_5 <= 0.5\ngini = 0.5\nsamples = 2\nvalue = [1, 1]"] ;
582 -> 588 ;
589 [label="gini = 0.0\nsamples = 1\nvalue = [0, 1]"] ;
588 -> 589 ;
590 [label="gini = 0.0\nsamples = 1\nvalue = [1, 0]"] ;
588 -> 590 ;
591 [label="gini = 0.0\nsamples = 1\nvalue = [0, 1]"] ;
581 -> 591 ;
592 [label="hour_18 <= 0.5\ngini = 0.408\nsamples = 7\nvalue = [5, 2]"] ;
402 -> 592 ;
593 [label="hour_6 <= 0.5\ngini = 0.278\nsamples = 6\nvalue = [5, 1]"] ;
592 -> 593 ;
594 [label="gini = 0.0\nsamples = 5\nvalue = [5, 0]"] ;
593 -> 594 ;
595 [label="gini = 0.0\nsamples = 1\nvalue = [0, 1]"] ;
593 -> 595 ;
596 [label="gini = 0.0\nsamples = 1\nvalue = [0, 1]"] ;
592 -> 596 ;
597 [label="day_of_week_4 <= 0.5\ngini = 0.5\nsamples = 2\nvalue = [1, 1]"] ;
401 -> 597 ;
598 [label="gini = 0.0\nsamples = 1\nvalue = [0, 1]"] ;
597 -> 598 ;
599 [label="gini = 0.0\nsamples = 1\nvalue = [1, 0]"] ;
597 -> 599 ;
600 [label="day_of_week_5 <= 0.5\ngini = 0.5\nsamples = 2\nvalue = [1, 1]"] ;
400 -> 600 ;
601 [label="gini = 0.0\nsamples = 1\nvalue = [0, 1]"] ;
600 -> 601 ;
602 [label="gini = 0.0\nsamples = 1\nvalue = [1, 0]"] ;
600 -> 602 ;
603 [label="hour_18 <= 0.5\ngini = 0.5\nsamples = 2\nvalue = [1, 1]"] ;
399 -> 603 ;
604 [label="gini = 0.0\nsamples = 1\nvalue = [1, 0]"] ;
603 -> 604 ;
605 [label="gini = 0.0\nsamples = 1\nvalue = [0, 1]"] ;
603 -> 605 ;
606 [label="hour_18 <= 0.5\ngini = 0.48\nsamples = 5\nvalue = [3, 2]"] ;
398 -> 606 ;
607 [label="day_of_week_1 <= 0.5\ngini = 0.375\nsamples = 4\nvalue = [3, 1]"] ;
606 -> 607 ;
608 [label="gini = 0.0\nsamples = 2\nvalue = [2, 0]"] ;
607 -> 608 ;
609 [label="hour_12 <= 0.5\ngini = 0.5\nsamples = 2\nvalue = [1, 1]"] ;
607 -> 609 ;
610 [label="gini = 0.0\nsamples = 1\nvalue = [1, 0]"] ;
609 -> 610 ;
611 [label="gini = 0.0\nsamples = 1\nvalue = [0, 1]"] ;
609 -> 611 ;
612 [label="gini = 0.0\nsamples = 1\nvalue = [0, 1]"] ;
606 -> 612 ;
613 [label="gini = 0.0\nsamples = 1\nvalue = [0, 1]"] ;
397 -> 613 ;
614 [label="day_of_week_0 <= 0.5\ngini = 0.32\nsamples = 15\nvalue = [12, 3]"] ;
56 -> 614 ;
615 [label="hour_12 <= 0.5\ngini = 0.142\nsamples = 13\nvalue = [12, 1]"] ;
614 -> 615 ;
616 [label="gini = 0.0\nsamples = 12\nvalue = [12, 0]"] ;
615 -> 616 ;
617 [label="gini = 0.0\nsamples = 1\nvalue = [0, 1]"] ;
615 -> 617 ;
618 [label="gini = 0.0\nsamples = 2\nvalue = [0, 2]"] ;
614 -> 618 ;
619 [label="hour_18 <= 0.5\ngini = 0.287\nsamples = 23\nvalue = [19, 4]"] ;
55 -> 619 ;
620 [label="hour_22 <= 0.5\ngini = 0.236\nsamples = 22\nvalue = [19, 3]"] ;
619 -> 620 ;
621 [label="Problem_TRASH - Trash Fire <= 0.5\ngini = 0.172\nsamples = 21\nvalue = [19, 2]"] ;
620 -> 621 ;
622 [label="gini = 0.0\nsamples = 11\nvalue = [11, 0]"] ;
621 -> 622 ;
623 [label="day_of_week_1 <= 0.5\ngini = 0.32\nsamples = 10\nvalue = [8, 2]"] ;
621 -> 623 ;
624 [label="day_of_week_2 <= 0.5\ngini = 0.219\nsamples = 8\nvalue = [7, 1]"] ;
623 -> 624 ;
625 [label="gini = 0.0\nsamples = 5\nvalue = [5, 0]"] ;
624 -> 625 ;
626 [label="hour_0 <= 0.5\ngini = 0.444\nsamples = 3\nvalue = [2, 1]"] ;
624 -> 626 ;
627 [label="gini = 0.5\nsamples = 2\nvalue = [1, 1]"] ;
626 -> 627 ;
628 [label="gini = 0.0\nsamples = 1\nvalue = [1, 0]"] ;
626 -> 628 ;
629 [label="hour_0 <= 0.5\ngini = 0.5\nsamples = 2\nvalue = [1, 1]"] ;
623 -> 629 ;
630 [label="gini = 0.0\nsamples = 1\nvalue = [1, 0]"] ;
629 -> 630 ;
631 [label="gini = 0.0\nsamples = 1\nvalue = [0, 1]"] ;
629 -> 631 ;
632 [label="gini = 0.0\nsamples = 1\nvalue = [0, 1]"] ;
620 -> 632 ;
633 [label="gini = 0.0\nsamples = 1\nvalue = [0, 1]"] ;
619 -> 633 ;
634 [label="ResponseArea_00-3808 <= 0.5\ngini = 0.163\nsamples = 268\nvalue = [244, 24]"] ;
54 -> 634 ;
635 [label="ResponseArea_00-3605 <= 0.5\ngini = 0.152\nsamples = 266\nvalue = [244, 22]"] ;
634 -> 635 ;
636 [label="ResponseArea_00-2502 <= 0.5\ngini = 0.146\nsamples = 265\nvalue = [244, 21]"] ;
635 -> 636 ;
637 [label="ResponseArea_00-3501 <= 0.5\ngini = 0.14\nsamples = 264\nvalue = [244, 20]"] ;
636 -> 637 ;
638 [label="ResponseArea_00-2503 <= 0.5\ngini = 0.134\nsamples = 263\nvalue = [244, 19]"] ;
637 -> 638 ;
639 [label="ResponseArea_00-1003 <= 0.5\ngini = 0.128\nsamples = 262\nvalue = [244, 18]"] ;
638 -> 639 ;
640 [label="ResponseArea_00-2006 <= 0.5\ngini = 0.122\nsamples = 261\nvalue = [244, 17]"] ;
639 -> 640 ;
641 [label="Problem_BRSHL - Brush Alarm / Light <= 0.5\ngini = 0.116\nsamples = 260\nvalue = [244, 16]"] ;
640 -> 641 ;
642 [label="ResponseArea_00-2301 <= 0.5\ngini = 0.109\nsamples = 259\nvalue = [244, 15]"] ;
641 -> 642 ;
643 [label="ResponseArea_00-2306 <= 0.5\ngini = 0.103\nsamples = 258\nvalue = [244, 14]"] ;
642 -> 643 ;
644 [label="ResponseArea_00-2801 <= 0.5\ngini = 0.096\nsamples = 256\nvalue = [243, 13]"] ;
643 -> 644 ;
645 [label="ResponseArea_00-3001 <= 0.5\ngini = 0.09\nsamples = 254\nvalue = [242, 12]"] ;
644 -> 645 ;
646 [label="ResponseArea_00-0502 <= 0.5\ngini = 0.084\nsamples = 251\nvalue = [240, 11]"] ;
645 -> 646 ;
647 [label="ResponseArea_00-2005 <= 0.5\ngini = 0.077\nsamples = 248\nvalue = [238, 10]"] ;
646 -> 647 ;
648 [label="ResponseArea_00-0702 <= 0.5\ngini = 0.071\nsamples = 245\nvalue = [236, 9]"] ;
647 -> 648 ;
649 [label="ResponseArea_00-1709 <= 0.5\ngini = 0.064\nsamples = 242\nvalue = [234, 8]"] ;
648 -> 649 ;
650 [label="ResponseArea_00-3005 <= 0.5\ngini = 0.057\nsamples = 239\nvalue = [232, 7]"] ;
649 -> 650 ;
651 [label="ResponseArea_00-2104 <= 0.5\ngini = 0.05\nsamples = 236\nvalue = [230, 6]"] ;
650 -> 651 ;
652 [label="ResponseArea_00-4001 <= 0.5\ngini = 0.042\nsamples = 233\nvalue = [228, 5]"] ;
651 -> 652 ;
653 [label="ResponseArea_00-2903 <= 0.5\ngini = 0.034\nsamples = 230\nvalue = [226, 4]"] ;
652 -> 653 ;
654 [label="ResponseArea_00-1803 <= 0.5\ngini = 0.026\nsamples = 226\nvalue = [223, 3]"] ;
653 -> 654 ;
655 [label="ResponseArea_00-0804 <= 0.5\ngini = 0.018\nsamples = 222\nvalue = [220, 2]"] ;
654 -> 655 ;
656 [label="ResponseArea_00-0401 <= 0.5\ngini = 0.009\nsamples = 217\nvalue = [216, 1]"] ;
655 -> 656 ;
657 [label="gini = 0.0\nsamples = 210\nvalue = [210, 0]"] ;
656 -> 657 ;
658 [label="day_of_week_3 <= 0.5\ngini = 0.245\nsamples = 7\nvalue = [6, 1]"] ;
656 -> 658 ;
659 [label="gini = 0.0\nsamples = 5\nvalue = [5, 0]"] ;
658 -> 659 ;
660 [label="Problem_ELEC - Electrical Fire <= 0.5\ngini = 0.5\nsamples = 2\nvalue = [1, 1]"] ;
658 -> 660 ;
661 [label="gini = 0.0\nsamples = 1\nvalue = [1, 0]"] ;
660 -> 661 ;
662 [label="gini = 0.0\nsamples = 1\nvalue = [0, 1]"] ;
660 -> 662 ;
663 [label="day_of_week_0 <= 0.5\ngini = 0.32\nsamples = 5\nvalue = [4, 1]"] ;
655 -> 663 ;
664 [label="gini = 0.0\nsamples = 3\nvalue = [3, 0]"] ;
663 -> 664 ;
665 [label="gini = 0.5\nsamples = 2\nvalue = [1, 1]"] ;
663 -> 665 ;
666 [label="day_of_week_5 <= 0.5\ngini = 0.375\nsamples = 4\nvalue = [3, 1]"] ;
654 -> 666 ;
667 [label="gini = 0.0\nsamples = 3\nvalue = [3, 0]"] ;
666 -> 667 ;
668 [label="gini = 0.0\nsamples = 1\nvalue = [0, 1]"] ;
666 -> 668 ;
669 [label="day_of_week_4 <= 0.5\ngini = 0.375\nsamples = 4\nvalue = [3, 1]"] ;
653 -> 669 ;
670 [label="gini = 0.0\nsamples = 3\nvalue = [3, 0]"] ;
669 -> 670 ;
671 [label="gini = 0.0\nsamples = 1\nvalue = [0, 1]"] ;
669 -> 671 ;
672 [label="day_of_week_0 <= 0.5\ngini = 0.444\nsamples = 3\nvalue = [2, 1]"] ;
652 -> 672 ;
673 [label="gini = 0.5\nsamples = 2\nvalue = [1, 1]"] ;
672 -> 673 ;
674 [label="gini = 0.0\nsamples = 1\nvalue = [1, 0]"] ;
672 -> 674 ;
675 [label="Problem_TRASH - Trash Fire <= 0.5\ngini = 0.444\nsamples = 3\nvalue = [2, 1]"] ;
651 -> 675 ;
676 [label="gini = 0.0\nsamples = 2\nvalue = [2, 0]"] ;
675 -> 676 ;
677 [label="gini = 0.0\nsamples = 1\nvalue = [0, 1]"] ;
675 -> 677 ;
678 [label="day_of_week_5 <= 0.5\ngini = 0.444\nsamples = 3\nvalue = [2, 1]"] ;
650 -> 678 ;
679 [label="gini = 0.0\nsamples = 2\nvalue = [2, 0]"] ;
678 -> 679 ;
680 [label="gini = 0.0\nsamples = 1\nvalue = [0, 1]"] ;
678 -> 680 ;
681 [label="day_of_week_3 <= 0.5\ngini = 0.444\nsamples = 3\nvalue = [2, 1]"] ;
649 -> 681 ;
682 [label="gini = 0.0\nsamples = 2\nvalue = [2, 0]"] ;
681 -> 682 ;
683 [label="gini = 0.0\nsamples = 1\nvalue = [0, 1]"] ;
681 -> 683 ;
684 [label="Problem_TRASH - Trash Fire <= 0.5\ngini = 0.444\nsamples = 3\nvalue = [2, 1]"] ;
648 -> 684 ;
685 [label="gini = 0.0\nsamples = 2\nvalue = [2, 0]"] ;
684 -> 685 ;
686 [label="gini = 0.0\nsamples = 1\nvalue = [0, 1]"] ;
684 -> 686 ;
687 [label="day_of_week_5 <= 0.5\ngini = 0.444\nsamples = 3\nvalue = [2, 1]"] ;
647 -> 687 ;
688 [label="gini = 0.0\nsamples = 2\nvalue = [2, 0]"] ;
687 -> 688 ;
689 [label="gini = 0.0\nsamples = 1\nvalue = [0, 1]"] ;
687 -> 689 ;
690 [label="day_of_week_2 <= 0.5\ngini = 0.444\nsamples = 3\nvalue = [2, 1]"] ;
646 -> 690 ;
691 [label="gini = 0.0\nsamples = 2\nvalue = [2, 0]"] ;
690 -> 691 ;
692 [label="gini = 0.0\nsamples = 1\nvalue = [0, 1]"] ;
690 -> 692 ;
693 [label="day_of_week_4 <= 0.5\ngini = 0.444\nsamples = 3\nvalue = [2, 1]"] ;
645 -> 693 ;
694 [label="gini = 0.0\nsamples = 2\nvalue = [2, 0]"] ;
693 -> 694 ;
695 [label="gini = 0.0\nsamples = 1\nvalue = [0, 1]"] ;
693 -> 695 ;
696 [label="Problem_TRASH - Trash Fire <= 0.5\ngini = 0.5\nsamples = 2\nvalue = [1, 1]"] ;
644 -> 696 ;
697 [label="gini = 0.0\nsamples = 1\nvalue = [0, 1]"] ;
696 -> 697 ;
698 [label="gini = 0.0\nsamples = 1\nvalue = [1, 0]"] ;
696 -> 698 ;
699 [label="day_of_week_1 <= 0.5\ngini = 0.5\nsamples = 2\nvalue = [1, 1]"] ;
643 -> 699 ;
700 [label="gini = 0.0\nsamples = 1\nvalue = [0, 1]"] ;
699 -> 700 ;
701 [label="gini = 0.0\nsamples = 1\nvalue = [1, 0]"] ;
699 -> 701 ;
702 [label="gini = 0.0\nsamples = 1\nvalue = [0, 1]"] ;
642 -> 702 ;
703 [label="gini = 0.0\nsamples = 1\nvalue = [0, 1]"] ;
641 -> 703 ;
704 [label="gini = 0.0\nsamples = 1\nvalue = [0, 1]"] ;
640 -> 704 ;
705 [label="gini = 0.0\nsamples = 1\nvalue = [0, 1]"] ;
639 -> 705 ;
706 [label="gini = 0.0\nsamples = 1\nvalue = [0, 1]"] ;
638 -> 706 ;
707 [label="gini = 0.0\nsamples = 1\nvalue = [0, 1]"] ;
637 -> 707 ;
708 [label="gini = 0.0\nsamples = 1\nvalue = [0, 1]"] ;
636 -> 708 ;
709 [label="gini = 0.0\nsamples = 1\nvalue = [0, 1]"] ;
635 -> 709 ;
710 [label="gini = 0.0\nsamples = 2\nvalue = [0, 2]"] ;
634 -> 710 ;
711 [label="hour_22 <= 0.5\ngini = 0.5\nsamples = 2\nvalue = [1, 1]"] ;
53 -> 711 ;
712 [label="gini = 0.0\nsamples = 1\nvalue = [1, 0]"] ;
711 -> 712 ;
713 [label="gini = 0.0\nsamples = 1\nvalue = [0, 1]"] ;
711 -> 713 ;
714 [label="ResponseArea_00-1804 <= 0.5\ngini = 0.25\nsamples = 41\nvalue = [35, 6]"] ;
52 -> 714 ;
715 [label="ResponseArea_00-3606 <= 0.5\ngini = 0.188\nsamples = 38\nvalue = [34, 4]"] ;
714 -> 715 ;
716 [label="ResponseArea_00-2102 <= 0.5\ngini = 0.149\nsamples = 37\nvalue = [34, 3]"] ;
715 -> 716 ;
717 [label="ResponseArea_00-1707 <= 0.5\ngini = 0.105\nsamples = 36\nvalue = [34, 2]"] ;
716 -> 717 ;
718 [label="ResponseArea_00-1801 <= 0.5\ngini = 0.057\nsamples = 34\nvalue = [33, 1]"] ;
717 -> 718 ;
719 [label="gini = 0.0\nsamples = 32\nvalue = [32, 0]"] ;
718 -> 719 ;
720 [label="Problem_ELEC - Electrical Fire <= 0.5\ngini = 0.5\nsamples = 2\nvalue = [1, 1]"] ;
718 -> 720 ;
721 [label="gini = 0.0\nsamples = 1\nvalue = [1, 0]"] ;
720 -> 721 ;
722 [label="gini = 0.0\nsamples = 1\nvalue = [0, 1]"] ;
720 -> 722 ;
723 [label="day_of_week_5 <= 0.5\ngini = 0.5\nsamples = 2\nvalue = [1, 1]"] ;
717 -> 723 ;
724 [label="gini = 0.0\nsamples = 1\nvalue = [0, 1]"] ;
723 -> 724 ;
725 [label="gini = 0.0\nsamples = 1\nvalue = [1, 0]"] ;
723 -> 725 ;
726 [label="gini = 0.0\nsamples = 1\nvalue = [0, 1]"] ;
716 -> 726 ;
727 [label="gini = 0.0\nsamples = 1\nvalue = [0, 1]"] ;
715 -> 727 ;
728 [label="day_of_week_2 <= 0.5\ngini = 0.444\nsamples = 3\nvalue = [1, 2]"] ;
714 -> 728 ;
729 [label="gini = 0.0\nsamples = 2\nvalue = [0, 2]"] ;
728 -> 729 ;
730 [label="gini = 0.0\nsamples = 1\nvalue = [1, 0]"] ;
728 -> 730 ;
731 [label="ResponseArea_00-0803 <= 0.5\ngini = 0.069\nsamples = 503\nvalue = [485, 18]"] ;
51 -> 731 ;
732 [label="ResponseArea_00-0602 <= 0.5\ngini = 0.062\nsamples = 496\nvalue = [480, 16]"] ;
731 -> 732 ;
733 [label="ResponseArea_00-2304 <= 0.5\ngini = 0.059\nsamples = 494\nvalue = [479, 15]"] ;
732 -> 733 ;
734 [label="ResponseArea_00-2807 <= 0.5\ngini = 0.055\nsamples = 492\nvalue = [478, 14]"] ;
733 -> 734 ;
735 [label="ResponseArea_00-3401 <= 0.5\ngini = 0.052\nsamples = 490\nvalue = [477, 13]"] ;
734 -> 735 ;
736 [label="ResponseArea_00-4505 <= 0.5\ngini = 0.048\nsamples = 488\nvalue = [476, 12]"] ;
735 -> 736 ;
737 [label="ResponseArea_00-4504 <= 0.5\ngini = 0.044\nsamples = 486\nvalue = [475, 11]"] ;
736 -> 737 ;
738 [label="ResponseArea_00-3809 <= 0.5\ngini = 0.041\nsamples = 483\nvalue = [473, 10]"] ;
737 -> 738 ;
739 [label="ResponseArea_00-0701 <= 0.5\ngini = 0.037\nsamples = 480\nvalue = [471, 9]"] ;
738 -> 739 ;
740 [label="ResponseArea_00-3005 <= 0.5\ngini = 0.029\nsamples = 468\nvalue = [461, 7]"] ;
739 -> 740 ;
741 [label="ResponseArea_00-2005 <= 0.5\ngini = 0.026\nsamples = 464\nvalue = [458, 6]"] ;
740 -> 741 ;
742 [label="ResponseArea_00-2301 <= 0.5\ngini = 0.022\nsamples = 458\nvalue = [453, 5]"] ;
741 -> 742 ;
743 [label="ResponseArea_00-2202 <= 0.5\ngini = 0.018\nsamples = 451\nvalue = [447, 4]"] ;
742 -> 743 ;
744 [label="ResponseArea_00-3502 <= 0.5\ngini = 0.013\nsamples = 443\nvalue = [440, 3]"] ;
743 -> 744 ;
745 [label="ResponseArea_00-0101 <= 0.5\ngini = 0.009\nsamples = 435\nvalue = [433, 2]"] ;
744 -> 745 ;
746 [label="ResponseArea_00-1801 <= 0.5\ngini = 0.005\nsamples = 423\nvalue = [422, 1]"] ;
745 -> 746 ;
747 [label="gini = 0.0\nsamples = 409\nvalue = [409, 0]"] ;
746 -> 747 ;
748 [label="hour_22 <= 0.5\ngini = 0.133\nsamples = 14\nvalue = [13, 1]"] ;
746 -> 748 ;
749 [label="gini = 0.0\nsamples = 12\nvalue = [12, 0]"] ;
748 -> 749 ;
750 [label="Problem_TRASH - Trash Fire <= 0.5\ngini = 0.5\nsamples = 2\nvalue = [1, 1]"] ;
748 -> 750 ;
751 [label="gini = 0.0\nsamples = 1\nvalue = [1, 0]"] ;
750 -> 751 ;
752 [label="gini = 0.0\nsamples = 1\nvalue = [0, 1]"] ;
750 -> 752 ;
753 [label="hour_0 <= 0.5\ngini = 0.153\nsamples = 12\nvalue = [11, 1]"] ;
745 -> 753 ;
754 [label="gini = 0.0\nsamples = 10\nvalue = [10, 0]"] ;
753 -> 754 ;
755 [label="Problem_AUTO - Auto Fire <= 0.5\ngini = 0.5\nsamples = 2\nvalue = [1, 1]"] ;
753 -> 755 ;
756 [label="gini = 0.0\nsamples = 1\nvalue = [0, 1]"] ;
755 -> 756 ;
757 [label="gini = 0.0\nsamples = 1\nvalue = [1, 0]"] ;
755 -> 757 ;
758 [label="hour_18 <= 0.5\ngini = 0.219\nsamples = 8\nvalue = [7, 1]"] ;
744 -> 758 ;
759 [label="gini = 0.0\nsamples = 5\nvalue = [5, 0]"] ;
758 -> 759 ;
760 [label="Problem_TRASH - Trash Fire <= 0.5\ngini = 0.444\nsamples = 3\nvalue = [2, 1]"] ;
758 -> 760 ;
761 [label="gini = 0.0\nsamples = 1\nvalue = [1, 0]"] ;
760 -> 761 ;
762 [label="gini = 0.5\nsamples = 2\nvalue = [1, 1]"] ;
760 -> 762 ;
763 [label="hour_19 <= 0.5\ngini = 0.219\nsamples = 8\nvalue = [7, 1]"] ;
743 -> 763 ;
764 [label="gini = 0.0\nsamples = 7\nvalue = [7, 0]"] ;
763 -> 764 ;
765 [label="gini = 0.0\nsamples = 1\nvalue = [0, 1]"] ;
763 -> 765 ;
766 [label="hour_19 <= 0.5\ngini = 0.245\nsamples = 7\nvalue = [6, 1]"] ;
742 -> 766 ;
767 [label="gini = 0.0\nsamples = 6\nvalue = [6, 0]"] ;
766 -> 767 ;
768 [label="gini = 0.0\nsamples = 1\nvalue = [0, 1]"] ;
766 -> 768 ;
769 [label="hour_5 <= 0.5\ngini = 0.278\nsamples = 6\nvalue = [5, 1]"] ;
741 -> 769 ;
770 [label="gini = 0.0\nsamples = 5\nvalue = [5, 0]"] ;
769 -> 770 ;
771 [label="gini = 0.0\nsamples = 1\nvalue = [0, 1]"] ;
769 -> 771 ;
772 [label="hour_21 <= 0.5\ngini = 0.375\nsamples = 4\nvalue = [3, 1]"] ;
740 -> 772 ;
773 [label="gini = 0.0\nsamples = 3\nvalue = [3, 0]"] ;
772 -> 773 ;
774 [label="gini = 0.0\nsamples = 1\nvalue = [0, 1]"] ;
772 -> 774 ;
775 [label="hour_17 <= 0.5\ngini = 0.278\nsamples = 12\nvalue = [10, 2]"] ;
739 -> 775 ;
776 [label="hour_6 <= 0.5\ngini = 0.165\nsamples = 11\nvalue = [10, 1]"] ;
775 -> 776 ;
777 [label="gini = 0.0\nsamples = 10\nvalue = [10, 0]"] ;
776 -> 777 ;
778 [label="gini = 0.0\nsamples = 1\nvalue = [0, 1]"] ;
776 -> 778 ;
779 [label="gini = 0.0\nsamples = 1\nvalue = [0, 1]"] ;
775 -> 779 ;
780 [label="hour_1 <= 0.5\ngini = 0.444\nsamples = 3\nvalue = [2, 1]"] ;
738 -> 780 ;
781 [label="gini = 0.0\nsamples = 2\nvalue = [2, 0]"] ;
780 -> 781 ;
782 [label="gini = 0.0\nsamples = 1\nvalue = [0, 1]"] ;
780 -> 782 ;
783 [label="hour_22 <= 0.5\ngini = 0.444\nsamples = 3\nvalue = [2, 1]"] ;
737 -> 783 ;
784 [label="gini = 0.0\nsamples = 2\nvalue = [2, 0]"] ;
783 -> 784 ;
785 [label="gini = 0.0\nsamples = 1\nvalue = [0, 1]"] ;
783 -> 785 ;
786 [label="Problem_TRASH - Trash Fire <= 0.5\ngini = 0.5\nsamples = 2\nvalue = [1, 1]"] ;
736 -> 786 ;
787 [label="gini = 0.0\nsamples = 1\nvalue = [1, 0]"] ;
786 -> 787 ;
788 [label="gini = 0.0\nsamples = 1\nvalue = [0, 1]"] ;
786 -> 788 ;
789 [label="hour_16 <= 0.5\ngini = 0.5\nsamples = 2\nvalue = [1, 1]"] ;
735 -> 789 ;
790 [label="gini = 0.0\nsamples = 1\nvalue = [0, 1]"] ;
789 -> 790 ;
791 [label="gini = 0.0\nsamples = 1\nvalue = [1, 0]"] ;
789 -> 791 ;
792 [label="Problem_ELEC - Electrical Fire <= 0.5\ngini = 0.5\nsamples = 2\nvalue = [1, 1]"] ;
734 -> 792 ;
793 [label="gini = 0.0\nsamples = 1\nvalue = [0, 1]"] ;
792 -> 793 ;
794 [label="gini = 0.0\nsamples = 1\nvalue = [1, 0]"] ;
792 -> 794 ;
795 [label="gini = 0.5\nsamples = 2\nvalue = [1, 1]"] ;
733 -> 795 ;
796 [label="Problem_TRASH - Trash Fire <= 0.5\ngini = 0.5\nsamples = 2\nvalue = [1, 1]"] ;
732 -> 796 ;
797 [label="gini = 0.0\nsamples = 1\nvalue = [0, 1]"] ;
796 -> 797 ;
798 [label="gini = 0.0\nsamples = 1\nvalue = [1, 0]"] ;
796 -> 798 ;
799 [label="hour_14 <= 0.5\ngini = 0.408\nsamples = 7\nvalue = [5, 2]"] ;
731 -> 799 ;
800 [label="gini = 0.0\nsamples = 4\nvalue = [4, 0]"] ;
799 -> 800 ;
801 [label="Problem_ELEC - Electrical Fire <= 0.5\ngini = 0.444\nsamples = 3\nvalue = [1, 2]"] ;
799 -> 801 ;
802 [label="gini = 0.0\nsamples = 2\nvalue = [0, 2]"] ;
801 -> 802 ;
803 [label="gini = 0.0\nsamples = 1\nvalue = [1, 0]"] ;
801 -> 803 ;
804 [label="Problem_BOXL- Structure Fire <= 0.5\ngini = 0.257\nsamples = 33\nvalue = [28, 5]"] ;
50 -> 804 ;
805 [label="day_of_week_4 <= 0.5\ngini = 0.219\nsamples = 32\nvalue = [28, 4]"] ;
804 -> 805 ;
806 [label="day_of_week_6 <= 0.5\ngini = 0.133\nsamples = 28\nvalue = [26, 2]"] ;
805 -> 806 ;
807 [label="gini = 0.0\nsamples = 21\nvalue = [21, 0]"] ;
806 -> 807 ;
808 [label="hour_17 <= 0.5\ngini = 0.408\nsamples = 7\nvalue = [5, 2]"] ;
806 -> 808 ;
809 [label="Problem_ELEC - Electrical Fire <= 0.5\ngini = 0.278\nsamples = 6\nvalue = [5, 1]"] ;
808 -> 809 ;
810 [label="gini = 0.0\nsamples = 4\nvalue = [4, 0]"] ;
809 -> 810 ;
811 [label="hour_1 <= 0.5\ngini = 0.5\nsamples = 2\nvalue = [1, 1]"] ;
809 -> 811 ;
812 [label="gini = 0.0\nsamples = 1\nvalue = [1, 0]"] ;
811 -> 812 ;
813 [label="gini = 0.0\nsamples = 1\nvalue = [0, 1]"] ;
811 -> 813 ;
814 [label="gini = 0.0\nsamples = 1\nvalue = [0, 1]"] ;
808 -> 814 ;
815 [label="hour_4 <= 0.5\ngini = 0.5\nsamples = 4\nvalue = [2, 2]"] ;
805 -> 815 ;
816 [label="gini = 0.0\nsamples = 2\nvalue = [0, 2]"] ;
815 -> 816 ;
817 [label="gini = 0.0\nsamples = 2\nvalue = [2, 0]"] ;
815 -> 817 ;
818 [label="gini = 0.0\nsamples = 1\nvalue = [0, 1]"] ;
804 -> 818 ;
819 [label="ResponseArea_00-3802 <= 0.5\ngini = 0.178\nsamples = 172\nvalue = [155, 17]"] ;
49 -> 819 ;
820 [label="ResponseArea_00-3801 <= 0.5\ngini = 0.17\nsamples = 171\nvalue = [155, 16]"] ;
819 -> 820 ;
821 [label="ResponseArea_00-0807 <= 0.5\ngini = 0.161\nsamples = 170\nvalue = [155, 15]"] ;
820 -> 821 ;
822 [label="ResponseArea_00-2706 <= 0.5\ngini = 0.152\nsamples = 169\nvalue = [155, 14]"] ;
821 -> 822 ;
823 [label="ResponseArea_00-1406 <= 0.5\ngini = 0.143\nsamples = 168\nvalue = [155, 13]"] ;
822 -> 823 ;
824 [label="ResponseArea_00-2704 <= 0.5\ngini = 0.133\nsamples = 167\nvalue = [155, 12]"] ;
823 -> 824 ;
825 [label="ResponseArea_00-1707 <= 0.5\ngini = 0.124\nsamples = 166\nvalue = [155, 11]"] ;
824 -> 825 ;
826 [label="ResponseArea_00-2608 <= 0.5\ngini = 0.115\nsamples = 164\nvalue = [154, 10]"] ;
825 -> 826 ;
827 [label="ResponseArea_00-0301 <= 0.5\ngini = 0.105\nsamples = 162\nvalue = [153, 9]"] ;
826 -> 827 ;
828 [label="day_of_week_2 <= 0.5\ngini = 0.095\nsamples = 160\nvalue = [152, 8]"] ;
827 -> 828 ;
829 [label="ResponseArea_00-1504 <= 0.5\ngini = 0.068\nsamples = 142\nvalue = [137, 5]"] ;
828 -> 829 ;
830 [label="ResponseArea_00-3002 <= 0.5\ngini = 0.056\nsamples = 139\nvalue = [135, 4]"] ;
829 -> 830 ;
831 [label="ResponseArea_00-0701 <= 0.5\ngini = 0.043\nsamples = 136\nvalue = [133, 3]"] ;
830 -> 831 ;
832 [label="ResponseArea_00-2202 <= 0.5\ngini = 0.03\nsamples = 132\nvalue = [130, 2]"] ;
831 -> 832 ;
833 [label="ResponseArea_00-1101 <= 0.5\ngini = 0.016\nsamples = 127\nvalue = [126, 1]"] ;
832 -> 833 ;
834 [label="gini = 0.0\nsamples = 121\nvalue = [121, 0]"] ;
833 -> 834 ;
835 [label="Problem_ELEC - Electrical Fire <= 0.5\ngini = 0.278\nsamples = 6\nvalue = [5, 1]"] ;
833 -> 835 ;
836 [label="gini = 0.0\nsamples = 4\nvalue = [4, 0]"] ;
835 -> 836 ;
837 [label="gini = 0.5\nsamples = 2\nvalue = [1, 1]"] ;
835 -> 837 ;
838 [label="day_of_week_0 <= 0.5\ngini = 0.32\nsamples = 5\nvalue = [4, 1]"] ;
832 -> 838 ;
839 [label="gini = 0.0\nsamples = 4\nvalue = [4, 0]"] ;
838 -> 839 ;
840 [label="gini = 0.0\nsamples = 1\nvalue = [0, 1]"] ;
838 -> 840 ;
841 [label="Problem_TRASH - Trash Fire <= 0.5\ngini = 0.375\nsamples = 4\nvalue = [3, 1]"] ;
831 -> 841 ;
842 [label="gini = 0.0\nsamples = 3\nvalue = [3, 0]"] ;
841 -> 842 ;
843 [label="gini = 0.0\nsamples = 1\nvalue = [0, 1]"] ;
841 -> 843 ;
844 [label="day_of_week_3 <= 0.5\ngini = 0.444\nsamples = 3\nvalue = [2, 1]"] ;
830 -> 844 ;
845 [label="gini = 0.0\nsamples = 1\nvalue = [1, 0]"] ;
844 -> 845 ;
846 [label="gini = 0.5\nsamples = 2\nvalue = [1, 1]"] ;
844 -> 846 ;
847 [label="day_of_week_5 <= 0.5\ngini = 0.444\nsamples = 3\nvalue = [2, 1]"] ;
829 -> 847 ;
848 [label="gini = 0.0\nsamples = 1\nvalue = [1, 0]"] ;
847 -> 848 ;
849 [label="gini = 0.5\nsamples = 2\nvalue = [1, 1]"] ;
847 -> 849 ;
850 [label="Problem_TRASH - Trash Fire <= 0.5\ngini = 0.278\nsamples = 18\nvalue = [15, 3]"] ;
828 -> 850 ;
851 [label="ResponseArea_00-0804 <= 0.5\ngini = 0.124\nsamples = 15\nvalue = [14, 1]"] ;
850 -> 851 ;
852 [label="gini = 0.0\nsamples = 14\nvalue = [14, 0]"] ;
851 -> 852 ;
853 [label="gini = 0.0\nsamples = 1\nvalue = [0, 1]"] ;
851 -> 853 ;
854 [label="ResponseArea_00-1504 <= 0.5\ngini = 0.444\nsamples = 3\nvalue = [1, 2]"] ;
850 -> 854 ;
855 [label="gini = 0.0\nsamples = 2\nvalue = [0, 2]"] ;
854 -> 855 ;
856 [label="gini = 0.0\nsamples = 1\nvalue = [1, 0]"] ;
854 -> 856 ;
857 [label="day_of_week_0 <= 0.5\ngini = 0.5\nsamples = 2\nvalue = [1, 1]"] ;
827 -> 857 ;
858 [label="gini = 0.0\nsamples = 1\nvalue = [1, 0]"] ;
857 -> 858 ;
859 [label="gini = 0.0\nsamples = 1\nvalue = [0, 1]"] ;
857 -> 859 ;
860 [label="Problem_TRASH - Trash Fire <= 0.5\ngini = 0.5\nsamples = 2\nvalue = [1, 1]"] ;
826 -> 860 ;
861 [label="gini = 0.0\nsamples = 1\nvalue = [1, 0]"] ;
860 -> 861 ;
862 [label="gini = 0.0\nsamples = 1\nvalue = [0, 1]"] ;
860 -> 862 ;
863 [label="gini = 0.5\nsamples = 2\nvalue = [1, 1]"] ;
825 -> 863 ;
864 [label="gini = 0.0\nsamples = 1\nvalue = [0, 1]"] ;
824 -> 864 ;
865 [label="gini = 0.0\nsamples = 1\nvalue = [0, 1]"] ;
823 -> 865 ;
866 [label="gini = 0.0\nsamples = 1\nvalue = [0, 1]"] ;
822 -> 866 ;
867 [label="gini = 0.0\nsamples = 1\nvalue = [0, 1]"] ;
821 -> 867 ;
868 [label="gini = 0.0\nsamples = 1\nvalue = [0, 1]"] ;
820 -> 868 ;
869 [label="gini = 0.0\nsamples = 1\nvalue = [0, 1]"] ;
819 -> 869 ;
870 [label="day_of_week_2 <= 0.5\ngini = 0.375\nsamples = 8\nvalue = [6, 2]"] ;
48 -> 870 ;
871 [label="gini = 0.0\nsamples = 6\nvalue = [6, 0]"] ;
870 -> 871 ;
872 [label="gini = 0.0\nsamples = 2\nvalue = [0, 2]"] ;
870 -> 872 ;
873 [label="Problem_TRASH - Trash Fire <= 0.5\ngini = 0.375\nsamples = 8\nvalue = [6, 2]"] ;
47 -> 873 ;
874 [label="gini = 0.0\nsamples = 5\nvalue = [5, 0]"] ;
873 -> 874 ;
875 [label="day_of_week_4 <= 0.5\ngini = 0.444\nsamples = 3\nvalue = [1, 2]"] ;
873 -> 875 ;
876 [label="gini = 0.0\nsamples = 2\nvalue = [0, 2]"] ;
875 -> 876 ;
877 [label="gini = 0.0\nsamples = 1\nvalue = [1, 0]"] ;
875 -> 877 ;
878 [label="hour_18 <= 0.5\ngini = 0.264\nsamples = 32\nvalue = [27, 5]"] ;
46 -> 878 ;
879 [label="day_of_week_4 <= 0.5\ngini = 0.225\nsamples = 31\nvalue = [27, 4]"] ;
878 -> 879 ;
880 [label="hour_10 <= 0.5\ngini = 0.142\nsamples = 26\nvalue = [24, 2]"] ;
879 -> 880 ;
881 [label="hour_17 <= 0.5\ngini = 0.08\nsamples = 24\nvalue = [23, 1]"] ;
880 -> 881 ;
882 [label="gini = 0.0\nsamples = 22\nvalue = [22, 0]"] ;
881 -> 882 ;
883 [label="Problem_AUTO - Auto Fire <= 0.5\ngini = 0.5\nsamples = 2\nvalue = [1, 1]"] ;
881 -> 883 ;
884 [label="gini = 0.0\nsamples = 1\nvalue = [1, 0]"] ;
883 -> 884 ;
885 [label="gini = 0.0\nsamples = 1\nvalue = [0, 1]"] ;
883 -> 885 ;
886 [label="day_of_week_6 <= 0.5\ngini = 0.5\nsamples = 2\nvalue = [1, 1]"] ;
880 -> 886 ;
887 [label="gini = 0.0\nsamples = 1\nvalue = [1, 0]"] ;
886 -> 887 ;
888 [label="gini = 0.0\nsamples = 1\nvalue = [0, 1]"] ;
886 -> 888 ;
889 [label="hour_19 <= 0.5\ngini = 0.48\nsamples = 5\nvalue = [3, 2]"] ;
879 -> 889 ;
890 [label="hour_3 <= 0.5\ngini = 0.375\nsamples = 4\nvalue = [3, 1]"] ;
889 -> 890 ;
891 [label="gini = 0.0\nsamples = 3\nvalue = [3, 0]"] ;
890 -> 891 ;
892 [label="gini = 0.0\nsamples = 1\nvalue = [0, 1]"] ;
890 -> 892 ;
893 [label="gini = 0.0\nsamples = 1\nvalue = [0, 1]"] ;
889 -> 893 ;
894 [label="gini = 0.0\nsamples = 1\nvalue = [0, 1]"] ;
878 -> 894 ;
895 [label="hour_8 <= 0.5\ngini = 0.308\nsamples = 21\nvalue = [17, 4]"] ;
45 -> 895 ;
896 [label="hour_5 <= 0.5\ngini = 0.255\nsamples = 20\nvalue = [17, 3]"] ;
895 -> 896 ;
897 [label="Problem_AUTO - Auto Fire <= 0.5\ngini = 0.188\nsamples = 19\nvalue = [17, 2]"] ;
896 -> 897 ;
898 [label="gini = 0.0\nsamples = 9\nvalue = [9, 0]"] ;
897 -> 898 ;
899 [label="hour_22 <= 0.5\ngini = 0.32\nsamples = 10\nvalue = [8, 2]"] ;
897 -> 899 ;
900 [label="hour_17 <= 0.5\ngini = 0.219\nsamples = 8\nvalue = [7, 1]"] ;
899 -> 900 ;
901 [label="gini = 0.0\nsamples = 6\nvalue = [6, 0]"] ;
900 -> 901 ;
902 [label="day_of_week_6 <= 0.5\ngini = 0.5\nsamples = 2\nvalue = [1, 1]"] ;
900 -> 902 ;
903 [label="gini = 0.0\nsamples = 1\nvalue = [0, 1]"] ;
902 -> 903 ;
904 [label="gini = 0.0\nsamples = 1\nvalue = [1, 0]"] ;
902 -> 904 ;
905 [label="day_of_week_0 <= 0.5\ngini = 0.5\nsamples = 2\nvalue = [1, 1]"] ;
899 -> 905 ;
906 [label="gini = 0.0\nsamples = 1\nvalue = [0, 1]"] ;
905 -> 906 ;
907 [label="gini = 0.0\nsamples = 1\nvalue = [1, 0]"] ;
905 -> 907 ;
908 [label="gini = 0.0\nsamples = 1\nvalue = [0, 1]"] ;
896 -> 908 ;
909 [label="gini = 0.0\nsamples = 1\nvalue = [0, 1]"] ;
895 -> 909 ;
910 [label="day_of_week_3 <= 0.5\ngini = 0.408\nsamples = 7\nvalue = [5, 2]"] ;
44 -> 910 ;
911 [label="hour_18 <= 0.5\ngini = 0.278\nsamples = 6\nvalue = [5, 1]"] ;
910 -> 911 ;
912 [label="gini = 0.0\nsamples = 5\nvalue = [5, 0]"] ;
911 -> 912 ;
913 [label="gini = 0.0\nsamples = 1\nvalue = [0, 1]"] ;
911 -> 913 ;
914 [label="gini = 0.0\nsamples = 1\nvalue = [0, 1]"] ;
910 -> 914 ;
915 [label="day_of_week_0 <= 0.5\ngini = 0.5\nsamples = 2\nvalue = [1, 1]"] ;
43 -> 915 ;
916 [label="gini = 0.0\nsamples = 1\nvalue = [1, 0]"] ;
915 -> 916 ;
917 [label="gini = 0.0\nsamples = 1\nvalue = [0, 1]"] ;
915 -> 917 ;
918 [label="Problem_AUTO - Auto Fire <= 0.5\ngini = 0.375\nsamples = 12\nvalue = [9, 3]"] ;
42 -> 918 ;
919 [label="day_of_week_5 <= 0.5\ngini = 0.5\nsamples = 6\nvalue = [3, 3]"] ;
918 -> 919 ;
920 [label="hour_18 <= 0.5\ngini = 0.375\nsamples = 4\nvalue = [3, 1]"] ;
919 -> 920 ;
921 [label="gini = 0.0\nsamples = 3\nvalue = [3, 0]"] ;
920 -> 921 ;
922 [label="gini = 0.0\nsamples = 1\nvalue = [0, 1]"] ;
920 -> 922 ;
923 [label="gini = 0.0\nsamples = 2\nvalue = [0, 2]"] ;
919 -> 923 ;
924 [label="gini = 0.0\nsamples = 6\nvalue = [6, 0]"] ;
918 -> 924 ;
925 [label="hour_8 <= 0.5\ngini = 0.311\nsamples = 26\nvalue = [21, 5]"] ;
41 -> 925 ;
926 [label="hour_9 <= 0.5\ngini = 0.269\nsamples = 25\nvalue = [21, 4]"] ;
925 -> 926 ;
927 [label="hour_21 <= 0.5\ngini = 0.219\nsamples = 24\nvalue = [21, 3]"] ;
926 -> 927 ;
928 [label="hour_13 <= 0.5\ngini = 0.172\nsamples = 21\nvalue = [19, 2]"] ;
927 -> 928 ;
929 [label="hour_16 <= 0.5\ngini = 0.105\nsamples = 18\nvalue = [17, 1]"] ;
928 -> 929 ;
930 [label="gini = 0.0\nsamples = 14\nvalue = [14, 0]"] ;
929 -> 930 ;
931 [label="day_of_week_5 <= 0.5\ngini = 0.375\nsamples = 4\nvalue = [3, 1]"] ;
929 -> 931 ;
932 [label="gini = 0.0\nsamples = 3\nvalue = [3, 0]"] ;
931 -> 932 ;
933 [label="gini = 0.0\nsamples = 1\nvalue = [0, 1]"] ;
931 -> 933 ;
934 [label="day_of_week_3 <= 0.5\ngini = 0.444\nsamples = 3\nvalue = [2, 1]"] ;
928 -> 934 ;
935 [label="gini = 0.0\nsamples = 2\nvalue = [2, 0]"] ;
934 -> 935 ;
936 [label="gini = 0.0\nsamples = 1\nvalue = [0, 1]"] ;
934 -> 936 ;
937 [label="Problem_AUTO - Auto Fire <= 0.5\ngini = 0.444\nsamples = 3\nvalue = [2, 1]"] ;
927 -> 937 ;
938 [label="gini = 0.0\nsamples = 2\nvalue = [2, 0]"] ;
937 -> 938 ;
939 [label="gini = 0.0\nsamples = 1\nvalue = [0, 1]"] ;
937 -> 939 ;
940 [label="gini = 0.0\nsamples = 1\nvalue = [0, 1]"] ;
926 -> 940 ;
941 [label="gini = 0.0\nsamples = 1\nvalue = [0, 1]"] ;
925 -> 941 ;
942 [label="ResponseArea_00-1404 <= 0.5\ngini = 0.057\nsamples = 309\nvalue = [300, 9]"] ;
40 -> 942 ;
943 [label="ResponseArea_00-2805 <= 0.5\ngini = 0.051\nsamples = 308\nvalue = [300, 8]"] ;
942 -> 943 ;
944 [label="ResponseArea_00-2102 <= 0.5\ngini = 0.045\nsamples = 307\nvalue = [300, 7]"] ;
943 -> 944 ;
945 [label="ResponseArea_00-4003 <= 0.5\ngini = 0.039\nsamples = 305\nvalue = [299, 6]"] ;
944 -> 945 ;
946 [label="ResponseArea_00-0801 <= 0.5\ngini = 0.032\nsamples = 303\nvalue = [298, 5]"] ;
945 -> 946 ;
947 [label="ResponseArea_00-2606 <= 0.5\ngini = 0.026\nsamples = 300\nvalue = [296, 4]"] ;
946 -> 947 ;
948 [label="ResponseArea_00-2305 <= 0.5\ngini = 0.02\nsamples = 296\nvalue = [293, 3]"] ;
947 -> 948 ;
949 [label="ResponseArea_00-0803 <= 0.5\ngini = 0.014\nsamples = 292\nvalue = [290, 2]"] ;
948 -> 949 ;
950 [label="ResponseArea_00-2801 <= 0.5\ngini = 0.007\nsamples = 287\nvalue = [286, 1]"] ;
949 -> 950 ;
951 [label="gini = 0.0\nsamples = 280\nvalue = [280, 0]"] ;
950 -> 951 ;
952 [label="day_of_week_6 <= 0.5\ngini = 0.245\nsamples = 7\nvalue = [6, 1]"] ;
950 -> 952 ;
953 [label="gini = 0.0\nsamples = 6\nvalue = [6, 0]"] ;
952 -> 953 ;
954 [label="gini = 0.0\nsamples = 1\nvalue = [0, 1]"] ;
952 -> 954 ;
955 [label="day_of_week_6 <= 0.5\ngini = 0.32\nsamples = 5\nvalue = [4, 1]"] ;
949 -> 955 ;
956 [label="gini = 0.0\nsamples = 3\nvalue = [3, 0]"] ;
955 -> 956 ;
957 [label="Problem_TRASH - Trash Fire <= 0.5\ngini = 0.5\nsamples = 2\nvalue = [1, 1]"] ;
955 -> 957 ;
958 [label="gini = 0.0\nsamples = 1\nvalue = [0, 1]"] ;
957 -> 958 ;
959 [label="gini = 0.0\nsamples = 1\nvalue = [1, 0]"] ;
957 -> 959 ;
960 [label="Problem_ELEC - Electrical Fire <= 0.5\ngini = 0.375\nsamples = 4\nvalue = [3, 1]"] ;
948 -> 960 ;
961 [label="gini = 0.0\nsamples = 3\nvalue = [3, 0]"] ;
960 -> 961 ;
962 [label="gini = 0.0\nsamples = 1\nvalue = [0, 1]"] ;
960 -> 962 ;
963 [label="day_of_week_2 <= 0.5\ngini = 0.375\nsamples = 4\nvalue = [3, 1]"] ;
947 -> 963 ;
964 [label="gini = 0.0\nsamples = 3\nvalue = [3, 0]"] ;
963 -> 964 ;
965 [label="gini = 0.0\nsamples = 1\nvalue = [0, 1]"] ;
963 -> 965 ;
966 [label="day_of_week_3 <= 0.5\ngini = 0.444\nsamples = 3\nvalue = [2, 1]"] ;
946 -> 966 ;
967 [label="gini = 0.0\nsamples = 2\nvalue = [2, 0]"] ;
966 -> 967 ;
968 [label="gini = 0.0\nsamples = 1\nvalue = [0, 1]"] ;
966 -> 968 ;
969 [label="Problem_AUTO - Auto Fire <= 0.5\ngini = 0.5\nsamples = 2\nvalue = [1, 1]"] ;
945 -> 969 ;
970 [label="gini = 0.0\nsamples = 1\nvalue = [0, 1]"] ;
969 -> 970 ;
971 [label="gini = 0.0\nsamples = 1\nvalue = [1, 0]"] ;
969 -> 971 ;
972 [label="day_of_week_6 <= 0.5\ngini = 0.5\nsamples = 2\nvalue = [1, 1]"] ;
944 -> 972 ;
973 [label="gini = 0.0\nsamples = 1\nvalue = [1, 0]"] ;
972 -> 973 ;
974 [label="gini = 0.0\nsamples = 1\nvalue = [0, 1]"] ;
972 -> 974 ;
975 [label="gini = 0.0\nsamples = 1\nvalue = [0, 1]"] ;
943 -> 975 ;
976 [label="gini = 0.0\nsamples = 1\nvalue = [0, 1]"] ;
942 -> 976 ;
977 [label="hour_21 <= 0.5\ngini = 0.227\nsamples = 69\nvalue = [60, 9]"] ;
39 -> 977 ;
978 [label="day_of_week_1 <= 0.5\ngini = 0.17\nsamples = 64\nvalue = [58, 6]"] ;
977 -> 978 ;
979 [label="hour_16 <= 0.5\ngini = 0.109\nsamples = 52\nvalue = [49, 3]"] ;
978 -> 979 ;
980 [label="Problem_BBQ - Unsafe Cooking <= 0.5\ngini = 0.077\nsamples = 50\nvalue = [48, 2]"] ;
979 -> 980 ;
981 [label="day_of_week_0 <= 0.5\ngini = 0.041\nsamples = 48\nvalue = [47, 1]"] ;
980 -> 981 ;
982 [label="gini = 0.0\nsamples = 40\nvalue = [40, 0]"] ;
981 -> 982 ;
983 [label="hour_18 <= 0.5\ngini = 0.219\nsamples = 8\nvalue = [7, 1]"] ;
981 -> 983 ;
984 [label="gini = 0.0\nsamples = 5\nvalue = [5, 0]"] ;
983 -> 984 ;
985 [label="Problem_AUTO - Auto Fire <= 0.5\ngini = 0.444\nsamples = 3\nvalue = [2, 1]"] ;
983 -> 985 ;
986 [label="gini = 0.0\nsamples = 2\nvalue = [2, 0]"] ;
985 -> 986 ;
987 [label="gini = 0.0\nsamples = 1\nvalue = [0, 1]"] ;
985 -> 987 ;
988 [label="hour_18 <= 0.5\ngini = 0.5\nsamples = 2\nvalue = [1, 1]"] ;
980 -> 988 ;
989 [label="gini = 0.0\nsamples = 1\nvalue = [1, 0]"] ;
988 -> 989 ;
990 [label="gini = 0.0\nsamples = 1\nvalue = [0, 1]"] ;
988 -> 990 ;
991 [label="day_of_week_4 <= 0.5\ngini = 0.5\nsamples = 2\nvalue = [1, 1]"] ;
979 -> 991 ;
992 [label="gini = 0.0\nsamples = 1\nvalue = [1, 0]"] ;
991 -> 992 ;
993 [label="gini = 0.0\nsamples = 1\nvalue = [0, 1]"] ;
991 -> 993 ;
994 [label="hour_20 <= 0.5\ngini = 0.375\nsamples = 12\nvalue = [9, 3]"] ;
978 -> 994 ;
995 [label="hour_12 <= 0.5\ngini = 0.18\nsamples = 10\nvalue = [9, 1]"] ;
994 -> 995 ;
996 [label="gini = 0.0\nsamples = 9\nvalue = [9, 0]"] ;
995 -> 996 ;
997 [label="gini = 0.0\nsamples = 1\nvalue = [0, 1]"] ;
995 -> 997 ;
998 [label="gini = 0.0\nsamples = 2\nvalue = [0, 2]"] ;
994 -> 998 ;
999 [label="day_of_week_6 <= 0.5\ngini = 0.48\nsamples = 5\nvalue = [2, 3]"] ;
977 -> 999 ;
1000 [label="day_of_week_0 <= 0.5\ngini = 0.444\nsamples = 3\nvalue = [2, 1]"] ;
999 -> 1000 ;
1001 [label="gini = 0.0\nsamples = 2\nvalue = [2, 0]"] ;
1000 -> 1001 ;
1002 [label="gini = 0.0\nsamples = 1\nvalue = [0, 1]"] ;
1000 -> 1002 ;
1003 [label="gini = 0.0\nsamples = 2\nvalue = [0, 2]"] ;
999 -> 1003 ;
1004 [label="hour_1 <= 0.5\ngini = 0.308\nsamples = 21\nvalue = [17, 4]"] ;
38 -> 1004 ;
1005 [label="day_of_week_5 <= 0.5\ngini = 0.255\nsamples = 20\nvalue = [17, 3]"] ;
1004 -> 1005 ;
1006 [label="hour_18 <= 0.5\ngini = 0.188\nsamples = 19\nvalue = [17, 2]"] ;
1005 -> 1006 ;
1007 [label="hour_13 <= 0.5\ngini = 0.105\nsamples = 18\nvalue = [17, 1]"] ;
1006 -> 1007 ;
1008 [label="gini = 0.0\nsamples = 15\nvalue = [15, 0]"] ;
1007 -> 1008 ;
1009 [label="day_of_week_3 <= 0.5\ngini = 0.444\nsamples = 3\nvalue = [2, 1]"] ;
1007 -> 1009 ;
1010 [label="gini = 0.0\nsamples = 2\nvalue = [2, 0]"] ;
1009 -> 1010 ;
1011 [label="gini = 0.0\nsamples = 1\nvalue = [0, 1]"] ;
1009 -> 1011 ;
1012 [label="gini = 0.0\nsamples = 1\nvalue = [0, 1]"] ;
1006 -> 1012 ;
1013 [label="gini = 0.0\nsamples = 1\nvalue = [0, 1]"] ;
1005 -> 1013 ;
1014 [label="gini = 0.0\nsamples = 1\nvalue = [0, 1]"] ;
1004 -> 1014 ;
1015 [label="hour_13 <= 0.5\ngini = 0.302\nsamples = 27\nvalue = [22, 5]"] ;
37 -> 1015 ;
1016 [label="hour_19 <= 0.5\ngini = 0.211\nsamples = 25\nvalue = [22, 3]"] ;
1015 -> 1016 ;
1017 [label="day_of_week_0 <= 0.5\ngini = 0.087\nsamples = 22\nvalue = [21, 1]"] ;
1016 -> 1017 ;
1018 [label="gini = 0.0\nsamples = 18\nvalue = [18, 0]"] ;
1017 -> 1018 ;
1019 [label="Problem_TRASH - Trash Fire <= 0.5\ngini = 0.375\nsamples = 4\nvalue = [3, 1]"] ;
1017 -> 1019 ;
1020 [label="gini = 0.0\nsamples = 2\nvalue = [2, 0]"] ;
1019 -> 1020 ;
1021 [label="gini = 0.5\nsamples = 2\nvalue = [1, 1]"] ;
1019 -> 1021 ;
1022 [label="day_of_week_6 <= 0.5\ngini = 0.444\nsamples = 3\nvalue = [1, 2]"] ;
1016 -> 1022 ;
1023 [label="gini = 0.0\nsamples = 2\nvalue = [0, 2]"] ;
1022 -> 1023 ;
1024 [label="gini = 0.0\nsamples = 1\nvalue = [1, 0]"] ;
1022 -> 1024 ;
1025 [label="gini = 0.0\nsamples = 2\nvalue = [0, 2]"] ;
1015 -> 1025 ;
1026 [label="Problem_ELEC - Electrical Fire <= 0.5\ngini = 0.239\nsamples = 72\nvalue = [62, 10]"] ;
36 -> 1026 ;
1027 [label="hour_9 <= 0.5\ngini = 0.113\nsamples = 50\nvalue = [47, 3]"] ;
1026 -> 1027 ;
1028 [label="hour_18 <= 0.5\ngini = 0.08\nsamples = 48\nvalue = [46, 2]"] ;
1027 -> 1028 ;
1029 [label="hour_21 <= 0.5\ngini = 0.044\nsamples = 44\nvalue = [43, 1]"] ;
1028 -> 1029 ;
1030 [label="gini = 0.0\nsamples = 39\nvalue = [39, 0]"] ;
1029 -> 1030 ;
1031 [label="day_of_week_2 <= 0.5\ngini = 0.32\nsamples = 5\nvalue = [4, 1]"] ;
1029 -> 1031 ;
1032 [label="gini = 0.0\nsamples = 3\nvalue = [3, 0]"] ;
1031 -> 1032 ;
1033 [label="gini = 0.5\nsamples = 2\nvalue = [1, 1]"] ;
1031 -> 1033 ;
1034 [label="day_of_week_0 <= 0.5\ngini = 0.375\nsamples = 4\nvalue = [3, 1]"] ;
1028 -> 1034 ;
1035 [label="gini = 0.0\nsamples = 3\nvalue = [3, 0]"] ;
1034 -> 1035 ;
1036 [label="gini = 0.0\nsamples = 1\nvalue = [0, 1]"] ;
1034 -> 1036 ;
1037 [label="Problem_TRASH - Trash Fire <= 0.5\ngini = 0.5\nsamples = 2\nvalue = [1, 1]"] ;
1027 -> 1037 ;
1038 [label="gini = 0.0\nsamples = 1\nvalue = [0, 1]"] ;
1037 -> 1038 ;
1039 [label="gini = 0.0\nsamples = 1\nvalue = [1, 0]"] ;
1037 -> 1039 ;
1040 [label="day_of_week_3 <= 0.5\ngini = 0.434\nsamples = 22\nvalue = [15, 7]"] ;
1026 -> 1040 ;
1041 [label="hour_12 <= 0.5\ngini = 0.375\nsamples = 20\nvalue = [15, 5]"] ;
1040 -> 1041 ;
1042 [label="hour_23 <= 0.5\ngini = 0.332\nsamples = 19\nvalue = [15, 4]"] ;
1041 -> 1042 ;
1043 [label="day_of_week_2 <= 0.5\ngini = 0.278\nsamples = 18\nvalue = [15, 3]"] ;
1042 -> 1043 ;
1044 [label="hour_18 <= 0.5\ngini = 0.219\nsamples = 16\nvalue = [14, 2]"] ;
1043 -> 1044 ;
1045 [label="hour_11 <= 0.5\ngini = 0.133\nsamples = 14\nvalue = [13, 1]"] ;
1044 -> 1045 ;
1046 [label="gini = 0.0\nsamples = 11\nvalue = [11, 0]"] ;
1045 -> 1046 ;
1047 [label="day_of_week_1 <= 0.5\ngini = 0.444\nsamples = 3\nvalue = [2, 1]"] ;
1045 -> 1047 ;
1048 [label="gini = 0.0\nsamples = 1\nvalue = [1, 0]"] ;
1047 -> 1048 ;
1049 [label="gini = 0.5\nsamples = 2\nvalue = [1, 1]"] ;
1047 -> 1049 ;
1050 [label="gini = 0.5\nsamples = 2\nvalue = [1, 1]"] ;
1044 -> 1050 ;
1051 [label="hour_14 <= 0.5\ngini = 0.5\nsamples = 2\nvalue = [1, 1]"] ;
1043 -> 1051 ;
1052 [label="gini = 0.0\nsamples = 1\nvalue = [1, 0]"] ;
1051 -> 1052 ;
1053 [label="gini = 0.0\nsamples = 1\nvalue = [0, 1]"] ;
1051 -> 1053 ;
1054 [label="gini = 0.0\nsamples = 1\nvalue = [0, 1]"] ;
1042 -> 1054 ;
1055 [label="gini = 0.0\nsamples = 1\nvalue = [0, 1]"] ;
1041 -> 1055 ;
1056 [label="gini = 0.0\nsamples = 2\nvalue = [0, 2]"] ;
1040 -> 1056 ;
1057 [label="day_of_week_6 <= 0.5\ngini = 0.332\nsamples = 19\nvalue = [15, 4]"] ;
35 -> 1057 ;
1058 [label="hour_17 <= 0.5\ngini = 0.208\nsamples = 17\nvalue = [15, 2]"] ;
1057 -> 1058 ;
1059 [label="hour_21 <= 0.5\ngini = 0.124\nsamples = 15\nvalue = [14, 1]"] ;
1058 -> 1059 ;
1060 [label="gini = 0.0\nsamples = 12\nvalue = [12, 0]"] ;
1059 -> 1060 ;
1061 [label="day_of_week_0 <= 0.5\ngini = 0.444\nsamples = 3\nvalue = [2, 1]"] ;
1059 -> 1061 ;
1062 [label="gini = 0.0\nsamples = 1\nvalue = [1, 0]"] ;
1061 -> 1062 ;
1063 [label="Problem_ELEC - Electrical Fire <= 0.5\ngini = 0.5\nsamples = 2\nvalue = [1, 1]"] ;
1061 -> 1063 ;
1064 [label="gini = 0.0\nsamples = 1\nvalue = [0, 1]"] ;
1063 -> 1064 ;
1065 [label="gini = 0.0\nsamples = 1\nvalue = [1, 0]"] ;
1063 -> 1065 ;
1066 [label="day_of_week_3 <= 0.5\ngini = 0.5\nsamples = 2\nvalue = [1, 1]"] ;
1058 -> 1066 ;
1067 [label="gini = 0.0\nsamples = 1\nvalue = [1, 0]"] ;
1066 -> 1067 ;
1068 [label="gini = 0.0\nsamples = 1\nvalue = [0, 1]"] ;
1066 -> 1068 ;
1069 [label="gini = 0.0\nsamples = 2\nvalue = [0, 2]"] ;
1057 -> 1069 ;
1070 [label="hour_16 <= 0.5\ngini = 0.332\nsamples = 19\nvalue = [15, 4]"] ;
34 -> 1070 ;
1071 [label="hour_15 <= 0.5\ngini = 0.278\nsamples = 18\nvalue = [15, 3]"] ;
1070 -> 1071 ;
1072 [label="hour_17 <= 0.5\ngini = 0.208\nsamples = 17\nvalue = [15, 2]"] ;
1071 -> 1072 ;
1073 [label="hour_18 <= 0.5\ngini = 0.124\nsamples = 15\nvalue = [14, 1]"] ;
1072 -> 1073 ;
1074 [label="gini = 0.0\nsamples = 13\nvalue = [13, 0]"] ;
1073 -> 1074 ;
1075 [label="day_of_week_4 <= 0.5\ngini = 0.5\nsamples = 2\nvalue = [1, 1]"] ;
1073 -> 1075 ;
1076 [label="gini = 0.0\nsamples = 1\nvalue = [1, 0]"] ;
1075 -> 1076 ;
1077 [label="gini = 0.0\nsamples = 1\nvalue = [0, 1]"] ;
1075 -> 1077 ;
1078 [label="day_of_week_6 <= 0.5\ngini = 0.5\nsamples = 2\nvalue = [1, 1]"] ;
1072 -> 1078 ;
1079 [label="gini = 0.0\nsamples = 1\nvalue = [1, 0]"] ;
1078 -> 1079 ;
1080 [label="gini = 0.0\nsamples = 1\nvalue = [0, 1]"] ;
1078 -> 1080 ;
1081 [label="gini = 0.0\nsamples = 1\nvalue = [0, 1]"] ;
1071 -> 1081 ;
1082 [label="gini = 0.0\nsamples = 1\nvalue = [0, 1]"] ;
1070 -> 1082 ;
1083 [label="day_of_week_4 <= 0.5\ngini = 0.397\nsamples = 11\nvalue = [8, 3]"] ;
33 -> 1083 ;
1084 [label="hour_17 <= 0.5\ngini = 0.219\nsamples = 8\nvalue = [7, 1]"] ;
1083 -> 1084 ;
1085 [label="gini = 0.0\nsamples = 7\nvalue = [7, 0]"] ;
1084 -> 1085 ;
1086 [label="gini = 0.0\nsamples = 1\nvalue = [0, 1]"] ;
1084 -> 1086 ;
1087 [label="hour_16 <= 0.5\ngini = 0.444\nsamples = 3\nvalue = [1, 2]"] ;
1083 -> 1087 ;
1088 [label="gini = 0.5\nsamples = 2\nvalue = [1, 1]"] ;
1087 -> 1088 ;
1089 [label="gini = 0.0\nsamples = 1\nvalue = [0, 1]"] ;
1087 -> 1089 ;
1090 [label="hour_13 <= 0.5\ngini = 0.292\nsamples = 45\nvalue = [37, 8]"] ;
32 -> 1090 ;
1091 [label="hour_12 <= 0.5\ngini = 0.219\nsamples = 40\nvalue = [35, 5]"] ;
1090 -> 1091 ;
1092 [label="hour_23 <= 0.5\ngini = 0.184\nsamples = 39\nvalue = [35, 4]"] ;
1091 -> 1092 ;
1093 [label="hour_21 <= 0.5\ngini = 0.149\nsamples = 37\nvalue = [34, 3]"] ;
1092 -> 1093 ;
1094 [label="day_of_week_0 <= 0.5\ngini = 0.108\nsamples = 35\nvalue = [33, 2]"] ;
1093 -> 1094 ;
1095 [label="gini = 0.0\nsamples = 27\nvalue = [27, 0]"] ;
1094 -> 1095 ;
1096 [label="hour_18 <= 0.5\ngini = 0.375\nsamples = 8\nvalue = [6, 2]"] ;
1094 -> 1096 ;
1097 [label="hour_16 <= 0.5\ngini = 0.245\nsamples = 7\nvalue = [6, 1]"] ;
1096 -> 1097 ;
1098 [label="gini = 0.0\nsamples = 5\nvalue = [5, 0]"] ;
1097 -> 1098 ;
1099 [label="Problem_ELEC - Electrical Fire <= 0.5\ngini = 0.5\nsamples = 2\nvalue = [1, 1]"] ;
1097 -> 1099 ;
1100 [label="gini = 0.0\nsamples = 1\nvalue = [1, 0]"] ;
1099 -> 1100 ;
1101 [label="gini = 0.0\nsamples = 1\nvalue = [0, 1]"] ;
1099 -> 1101 ;
1102 [label="gini = 0.0\nsamples = 1\nvalue = [0, 1]"] ;
1096 -> 1102 ;
1103 [label="day_of_week_4 <= 0.5\ngini = 0.5\nsamples = 2\nvalue = [1, 1]"] ;
1093 -> 1103 ;
1104 [label="gini = 0.0\nsamples = 1\nvalue = [0, 1]"] ;
1103 -> 1104 ;
1105 [label="gini = 0.0\nsamples = 1\nvalue = [1, 0]"] ;
1103 -> 1105 ;
1106 [label="day_of_week_5 <= 0.5\ngini = 0.5\nsamples = 2\nvalue = [1, 1]"] ;
1092 -> 1106 ;
1107 [label="gini = 0.0\nsamples = 1\nvalue = [1, 0]"] ;
1106 -> 1107 ;
1108 [label="gini = 0.0\nsamples = 1\nvalue = [0, 1]"] ;
1106 -> 1108 ;
1109 [label="gini = 0.0\nsamples = 1\nvalue = [0, 1]"] ;
1091 -> 1109 ;
1110 [label="Problem_AUTO - Auto Fire <= 0.5\ngini = 0.48\nsamples = 5\nvalue = [2, 3]"] ;
1090 -> 1110 ;
1111 [label="gini = 0.0\nsamples = 2\nvalue = [0, 2]"] ;
1110 -> 1111 ;
1112 [label="day_of_week_0 <= 0.5\ngini = 0.444\nsamples = 3\nvalue = [2, 1]"] ;
1110 -> 1112 ;
1113 [label="gini = 0.0\nsamples = 1\nvalue = [1, 0]"] ;
1112 -> 1113 ;
1114 [label="gini = 0.5\nsamples = 2\nvalue = [1, 1]"] ;
1112 -> 1114 ;
1115 [label="ResponseArea_00-2202 <= 0.5\ngini = 0.236\nsamples = 117\nvalue = [101, 16]"] ;
31 -> 1115 ;
1116 [label="ResponseArea_00-1502 <= 0.5\ngini = 0.215\nsamples = 114\nvalue = [100, 14]"] ;
1115 -> 1116 ;
1117 [label="ResponseArea_00-2604 <= 0.5\ngini = 0.204\nsamples = 113\nvalue = [100, 13]"] ;
1116 -> 1117 ;
1118 [label="ResponseArea_00-1604 <= 0.5\ngini = 0.191\nsamples = 112\nvalue = [100, 12]"] ;
1117 -> 1118 ;
1119 [label="ResponseArea_00-3810 <= 0.5\ngini = 0.179\nsamples = 111\nvalue = [100, 11]"] ;
1118 -> 1119 ;
1120 [label="ResponseArea_00-3003 <= 0.5\ngini = 0.165\nsamples = 110\nvalue = [100, 10]"] ;
1119 -> 1120 ;
1121 [label="ResponseArea_00-0401 <= 0.5\ngini = 0.152\nsamples = 109\nvalue = [100, 9]"] ;
1120 -> 1121 ;
1122 [label="ResponseArea_00-0504 <= 0.5\ngini = 0.137\nsamples = 108\nvalue = [100, 8]"] ;
1121 -> 1122 ;
1123 [label="ResponseArea_00-2403 <= 0.5\ngini = 0.122\nsamples = 107\nvalue = [100, 7]"] ;
1122 -> 1123 ;
1124 [label="ResponseArea_00-0702 <= 0.5\ngini = 0.107\nsamples = 106\nvalue = [100, 6]"] ;
1123 -> 1124 ;
1125 [label="ResponseArea_00-2104 <= 0.5\ngini = 0.092\nsamples = 104\nvalue = [99, 5]"] ;
1124 -> 1125 ;
1126 [label="ResponseArea_00-4504 <= 0.5\ngini = 0.075\nsamples = 102\nvalue = [98, 4]"] ;
1125 -> 1126 ;
1127 [label="ResponseArea_00-0101 <= 0.5\ngini = 0.058\nsamples = 100\nvalue = [97, 3]"] ;
1126 -> 1127 ;
1128 [label="ResponseArea_00-3101 <= 0.5\ngini = 0.04\nsamples = 98\nvalue = [96, 2]"] ;
1127 -> 1128 ;
1129 [label="ResponseArea_00-2803 <= 0.5\ngini = 0.021\nsamples = 95\nvalue = [94, 1]"] ;
1128 -> 1129 ;
1130 [label="gini = 0.0\nsamples = 92\nvalue = [92, 0]"] ;
1129 -> 1130 ;
1131 [label="day_of_week_6 <= 0.5\ngini = 0.444\nsamples = 3\nvalue = [2, 1]"] ;
1129 -> 1131 ;
1132 [label="gini = 0.0\nsamples = 2\nvalue = [2, 0]"] ;
1131 -> 1132 ;
1133 [label="gini = 0.0\nsamples = 1\nvalue = [0, 1]"] ;
1131 -> 1133 ;
1134 [label="day_of_week_2 <= 0.5\ngini = 0.444\nsamples = 3\nvalue = [2, 1]"] ;
1128 -> 1134 ;
1135 [label="gini = 0.0\nsamples = 2\nvalue = [2, 0]"] ;
1134 -> 1135 ;
1136 [label="gini = 0.0\nsamples = 1\nvalue = [0, 1]"] ;
1134 -> 1136 ;
1137 [label="Problem_TRASH - Trash Fire <= 0.5\ngini = 0.5\nsamples = 2\nvalue = [1, 1]"] ;
1127 -> 1137 ;
1138 [label="gini = 0.0\nsamples = 1\nvalue = [0, 1]"] ;
1137 -> 1138 ;
1139 [label="gini = 0.0\nsamples = 1\nvalue = [1, 0]"] ;
1137 -> 1139 ;
1140 [label="day_of_week_0 <= 0.5\ngini = 0.5\nsamples = 2\nvalue = [1, 1]"] ;
1126 -> 1140 ;
1141 [label="gini = 0.0\nsamples = 1\nvalue = [1, 0]"] ;
1140 -> 1141 ;
1142 [label="gini = 0.0\nsamples = 1\nvalue = [0, 1]"] ;
1140 -> 1142 ;
1143 [label="Problem_AUTO - Auto Fire <= 0.5\ngini = 0.5\nsamples = 2\nvalue = [1, 1]"] ;
1125 -> 1143 ;
1144 [label="gini = 0.0\nsamples = 1\nvalue = [0, 1]"] ;
1143 -> 1144 ;
1145 [label="gini = 0.0\nsamples = 1\nvalue = [1, 0]"] ;
1143 -> 1145 ;
1146 [label="day_of_week_6 <= 0.5\ngini = 0.5\nsamples = 2\nvalue = [1, 1]"] ;
1124 -> 1146 ;
1147 [label="gini = 0.0\nsamples = 1\nvalue = [0, 1]"] ;
1146 -> 1147 ;
1148 [label="gini = 0.0\nsamples = 1\nvalue = [1, 0]"] ;
1146 -> 1148 ;
1149 [label="gini = 0.0\nsamples = 1\nvalue = [0, 1]"] ;
1123 -> 1149 ;
1150 [label="gini = 0.0\nsamples = 1\nvalue = [0, 1]"] ;
1122 -> 1150 ;
1151 [label="gini = 0.0\nsamples = 1\nvalue = [0, 1]"] ;
1121 -> 1151 ;
1152 [label="gini = 0.0\nsamples = 1\nvalue = [0, 1]"] ;
1120 -> 1152 ;
1153 [label="gini = 0.0\nsamples = 1\nvalue = [0, 1]"] ;
1119 -> 1153 ;
1154 [label="gini = 0.0\nsamples = 1\nvalue = [0, 1]"] ;
1118 -> 1154 ;
1155 [label="gini = 0.0\nsamples = 1\nvalue = [0, 1]"] ;
1117 -> 1155 ;
1156 [label="gini = 0.0\nsamples = 1\nvalue = [0, 1]"] ;
1116 -> 1156 ;
1157 [label="day_of_week_1 <= 0.5\ngini = 0.444\nsamples = 3\nvalue = [1, 2]"] ;
1115 -> 1157 ;
1158 [label="gini = 0.0\nsamples = 2\nvalue = [0, 2]"] ;
1157 -> 1158 ;
1159 [label="gini = 0.0\nsamples = 1\nvalue = [1, 0]"] ;
1157 -> 1159 ;
1160 [label="ResponseArea_00-4502 <= 0.5\ngini = 0.056\nsamples = 416\nvalue = [404, 12]"] ;
30 -> 1160 ;
1161 [label="ResponseArea_00-0505 <= 0.5\ngini = 0.052\nsamples = 415\nvalue = [404, 11]"] ;
1160 -> 1161 ;
1162 [label="ResponseArea_00-0804 <= 0.5\ngini = 0.047\nsamples = 414\nvalue = [404, 10]"] ;
1161 -> 1162 ;
1163 [label="ResponseArea_00-0202 <= 0.5\ngini = 0.043\nsamples = 411\nvalue = [402, 9]"] ;
1162 -> 1163 ;
1164 [label="ResponseArea_00-2306 <= 0.5\ngini = 0.038\nsamples = 408\nvalue = [400, 8]"] ;
1163 -> 1164 ;
1165 [label="ResponseArea_00-2305 <= 0.5\ngini = 0.034\nsamples = 405\nvalue = [398, 7]"] ;
1164 -> 1165 ;
1166 [label="ResponseArea_00-1804 <= 0.5\ngini = 0.029\nsamples = 402\nvalue = [396, 6]"] ;
1165 -> 1166 ;
1167 [label="ResponseArea_00-2903 <= 0.5\ngini = 0.025\nsamples = 397\nvalue = [392, 5]"] ;
1166 -> 1167 ;
1168 [label="ResponseArea_00-2402 <= 0.5\ngini = 0.02\nsamples = 392\nvalue = [388, 4]"] ;
1167 -> 1168 ;
1169 [label="hour_0 <= 0.5\ngini = 0.015\nsamples = 385\nvalue = [382, 3]"] ;
1168 -> 1169 ;
1170 [label="ResponseArea_00-1705 <= 0.5\ngini = 0.011\nsamples = 377\nvalue = [375, 2]"] ;
1169 -> 1170 ;
1171 [label="ResponseArea_00-0801 <= 0.5\ngini = 0.005\nsamples = 368\nvalue = [367, 1]"] ;
1170 -> 1171 ;
1172 [label="gini = 0.0\nsamples = 356\nvalue = [356, 0]"] ;
1171 -> 1172 ;
1173 [label="hour_18 <= 0.5\ngini = 0.153\nsamples = 12\nvalue = [11, 1]"] ;
1171 -> 1173 ;
1174 [label="gini = 0.0\nsamples = 10\nvalue = [10, 0]"] ;
1173 -> 1174 ;
1175 [label="day_of_week_1 <= 0.5\ngini = 0.5\nsamples = 2\nvalue = [1, 1]"] ;
1173 -> 1175 ;
1176 [label="gini = 0.0\nsamples = 1\nvalue = [0, 1]"] ;
1175 -> 1176 ;
1177 [label="gini = 0.0\nsamples = 1\nvalue = [1, 0]"] ;
1175 -> 1177 ;
1178 [label="hour_15 <= 0.5\ngini = 0.198\nsamples = 9\nvalue = [8, 1]"] ;
1170 -> 1178 ;
1179 [label="gini = 0.0\nsamples = 8\nvalue = [8, 0]"] ;
1178 -> 1179 ;
1180 [label="gini = 0.0\nsamples = 1\nvalue = [0, 1]"] ;
1178 -> 1180 ;
1181 [label="ResponseArea_00-0101 <= 0.5\ngini = 0.219\nsamples = 8\nvalue = [7, 1]"] ;
1169 -> 1181 ;
1182 [label="gini = 0.0\nsamples = 7\nvalue = [7, 0]"] ;
1181 -> 1182 ;
1183 [label="gini = 0.0\nsamples = 1\nvalue = [0, 1]"] ;
1181 -> 1183 ;
1184 [label="hour_20 <= 0.5\ngini = 0.245\nsamples = 7\nvalue = [6, 1]"] ;
1168 -> 1184 ;
1185 [label="gini = 0.0\nsamples = 6\nvalue = [6, 0]"] ;
1184 -> 1185 ;
1186 [label="gini = 0.0\nsamples = 1\nvalue = [0, 1]"] ;
1184 -> 1186 ;
1187 [label="hour_3 <= 0.5\ngini = 0.32\nsamples = 5\nvalue = [4, 1]"] ;
1167 -> 1187 ;
