digraph Tree {
node [shape=box] ;
0 [label="ResponseArea_00-2404 <= 0.5\ngini = 0.135\nsamples = 496\nvalue = [460, 36]"] ;
1 [label="ResponseArea_00-2607 <= 0.5\ngini = 0.128\nsamples = 494\nvalue = [460, 34]"] ;
0 -> 1 [labeldistance=2.5, labelangle=45, headlabel="True"] ;
2 [label="ResponseArea_00-3602 <= 0.5\ngini = 0.125\nsamples = 493\nvalue = [460, 33]"] ;
1 -> 2 ;
3 [label="ResponseArea_00-3608 <= 0.5\ngini = 0.122\nsamples = 492\nvalue = [460, 32]"] ;
2 -> 3 ;
4 [label="ResponseArea_00-3106 <= 0.5\ngini = 0.118\nsamples = 491\nvalue = [460, 31]"] ;
3 -> 4 ;
5 [label="ResponseArea_00-3102 <= 0.5\ngini = 0.115\nsamples = 490\nvalue = [460, 30]"] ;
4 -> 5 ;
6 [label="ResponseArea_00-3209 <= 0.5\ngini = 0.112\nsamples = 489\nvalue = [460, 29]"] ;
5 -> 6 ;
7 [label="ResponseArea_00-3808 <= 0.5\ngini = 0.108\nsamples = 488\nvalue = [460, 28]"] ;
6 -> 7 ;
8 [label="ResponseArea_00-2001 <= 0.5\ngini = 0.105\nsamples = 487\nvalue = [460, 27]"] ;
7 -> 8 ;
9 [label="ResponseArea_00-4209 <= 0.5\ngini = 0.101\nsamples = 486\nvalue = [460, 26]"] ;
8 -> 9 ;
10 [label="ResponseArea_00-4005 <= 0.5\ngini = 0.098\nsamples = 485\nvalue = [460, 25]"] ;
9 -> 10 ;
11 [label="ResponseArea_00-1505 <= 0.5\ngini = 0.094\nsamples = 484\nvalue = [460, 24]"] ;
10 -> 11 ;
12 [label="ResponseArea_00-0401 <= 0.5\ngini = 0.091\nsamples = 483\nvalue = [460, 23]"] ;
11 -> 12 ;
13 [label="ResponseArea_00-3501 <= 0.5\ngini = 0.084\nsamples = 477\nvalue = [456, 21]"] ;
12 -> 13 ;
14 [label="ResponseArea_00-3810 <= 0.5\ngini = 0.081\nsamples = 475\nvalue = [455, 20]"] ;
13 -> 14 ;
15 [label="ResponseArea_00-3504 <= 0.5\ngini = 0.077\nsamples = 473\nvalue = [454, 19]"] ;
14 -> 15 ;
16 [label="ResponseArea_00-2704 <= 0.5\ngini = 0.074\nsamples = 471\nvalue = [453, 18]"] ;
15 -> 16 ;
17 [label="ResponseArea_00-1712 <= 0.5\ngini = 0.07\nsamples = 469\nvalue = [452, 17]"] ;
16 -> 17 ;
18 [label="ResponseArea_00-3604 <= 0.5\ngini = 0.066\nsamples = 467\nvalue = [451, 16]"] ;
17 -> 18 ;
19 [label="ResponseArea_00-3611 <= 0.5\ngini = 0.059\nsamples = 459\nvalue = [445, 14]"] ;
18 -> 19 ;
20 [label="ResponseArea_00-4401 <= 0.5\ngini = 0.055\nsamples = 456\nvalue = [443, 13]"] ;
19 -> 20 ;
21 [label="ResponseArea_00-3401 <= 0.5\ngini = 0.052\nsamples = 453\nvalue = [441, 12]"] ;
20 -> 21 ;
22 [label="ResponseArea_00-2401 <= 0.5\ngini = 0.048\nsamples = 450\nvalue = [439, 11]"] ;
21 -> 22 ;
23 [label="ResponseArea_00-3607 <= 0.5\ngini = 0.044\nsamples = 447\nvalue = [437, 10]"] ;
22 -> 23 ;
24 [label="ResponseArea_00-1601 <= 0.5\ngini = 0.04\nsamples = 444\nvalue = [435, 9]"] ;
23 -> 24 ;
25 [label="ResponseArea_00-0202 <= 0.5\ngini = 0.036\nsamples = 440\nvalue = [432, 8]"] ;
24 -> 25 ;
26 [label="ResponseArea_00-2601 <= 0.5\ngini = 0.032\nsamples = 435\nvalue = [428, 7]"] ;
25 -> 26 ;
27 [label="ResponseArea_00-2304 <= 0.5\ngini = 0.028\nsamples = 430\nvalue = [424, 6]"] ;
26 -> 27 ;
28 [label="ResponseArea_00-1804 <= 0.5\ngini = 0.023\nsamples = 425\nvalue = [420, 5]"] ;
27 -> 28 ;
29 [label="ResponseArea_00-1706 <= 0.5\ngini = 0.019\nsamples = 420\nvalue = [416, 4]"] ;
28 -> 29 ;
30 [label="ResponseArea_00-0804 <= 0.5\ngini = 0.014\nsamples = 414\nvalue = [411, 3]"] ;
29 -> 30 ;
31 [label="ResponseArea_00-2402 <= 0.5\ngini = 0.01\nsamples = 407\nvalue = [405, 2]"] ;
30 -> 31 ;
32 [label="ResponseArea_00-0701 <= 0.5\ngini = 0.005\nsamples = 400\nvalue = [399, 1]"] ;
31 -> 32 ;
33 [label="gini = 0.0\nsamples = 390\nvalue = [390, 0]"] ;
32 -> 33 ;
34 [label="hour_23 <= 0.5\ngini = 0.18\nsamples = 10\nvalue = [9, 1]"] ;
32 -> 34 ;
35 [label="gini = 0.0\nsamples = 9\nvalue = [9, 0]"] ;
34 -> 35 ;
36 [label="gini = 0.0\nsamples = 1\nvalue = [0, 1]"] ;
34 -> 36 ;
37 [label="Problem_DUMP - Dumpster Fire <= 0.5\ngini = 0.245\nsamples = 7\nvalue = [6, 1]"] ;
31 -> 37 ;
38 [label="gini = 0.0\nsamples = 6\nvalue = [6, 0]"] ;
37 -> 38 ;
39 [label="gini = 0.0\nsamples = 1\nvalue = [0, 1]"] ;
37 -> 39 ;
40 [label="hour_12 <= 0.5\ngini = 0.245\nsamples = 7\nvalue = [6, 1]"] ;
30 -> 40 ;
41 [label="gini = 0.0\nsamples = 6\nvalue = [6, 0]"] ;
40 -> 41 ;
42 [label="gini = 0.0\nsamples = 1\nvalue = [0, 1]"] ;
40 -> 42 ;
43 [label="hour_22 <= 0.5\ngini = 0.278\nsamples = 6\nvalue = [5, 1]"] ;
29 -> 43 ;
44 [label="gini = 0.0\nsamples = 5\nvalue = [5, 0]"] ;
43 -> 44 ;
45 [label="gini = 0.0\nsamples = 1\nvalue = [0, 1]"] ;
43 -> 45 ;
46 [label="Problem_GRASS - Small Grass Fire <= 0.5\ngini = 0.32\nsamples = 5\nvalue = [4, 1]"] ;
28 -> 46 ;
47 [label="gini = 0.0\nsamples = 4\nvalue = [4, 0]"] ;
46 -> 47 ;
48 [label="gini = 0.0\nsamples = 1\nvalue = [0, 1]"] ;
46 -> 48 ;
49 [label="hour_15 <= 0.5\ngini = 0.32\nsamples = 5\nvalue = [4, 1]"] ;
27 -> 49 ;
50 [label="gini = 0.0\nsamples = 4\nvalue = [4, 0]"] ;
49 -> 50 ;
51 [label="gini = 0.0\nsamples = 1\nvalue = [0, 1]"] ;
49 -> 51 ;
52 [label="hour_21 <= 0.5\ngini = 0.32\nsamples = 5\nvalue = [4, 1]"] ;
26 -> 52 ;
53 [label="gini = 0.0\nsamples = 4\nvalue = [4, 0]"] ;
52 -> 53 ;
54 [label="gini = 0.0\nsamples = 1\nvalue = [0, 1]"] ;
52 -> 54 ;
55 [label="day_of_week_0 <= 0.5\ngini = 0.32\nsamples = 5\nvalue = [4, 1]"] ;
25 -> 55 ;
56 [label="gini = 0.0\nsamples = 4\nvalue = [4, 0]"] ;
55 -> 56 ;
57 [label="gini = 0.0\nsamples = 1\nvalue = [0, 1]"] ;
55 -> 57 ;
58 [label="hour_9 <= 0.5\ngini = 0.375\nsamples = 4\nvalue = [3, 1]"] ;
24 -> 58 ;
59 [label="gini = 0.0\nsamples = 3\nvalue = [3, 0]"] ;
58 -> 59 ;
60 [label="gini = 0.0\nsamples = 1\nvalue = [0, 1]"] ;
58 -> 60 ;
61 [label="Problem_TRASH - Trash Fire <= 0.5\ngini = 0.444\nsamples = 3\nvalue = [2, 1]"] ;
23 -> 61 ;
62 [label="gini = 0.0\nsamples = 2\nvalue = [2, 0]"] ;
61 -> 62 ;
63 [label="gini = 0.0\nsamples = 1\nvalue = [0, 1]"] ;
61 -> 63 ;
64 [label="hour_1 <= 0.5\ngini = 0.444\nsamples = 3\nvalue = [2, 1]"] ;
22 -> 64 ;
65 [label="gini = 0.0\nsamples = 2\nvalue = [2, 0]"] ;
64 -> 65 ;
66 [label="gini = 0.0\nsamples = 1\nvalue = [0, 1]"] ;
64 -> 66 ;
67 [label="Problem_AUTO - Auto Fire <= 0.5\ngini = 0.444\nsamples = 3\nvalue = [2, 1]"] ;
21 -> 67 ;
68 [label="gini = 0.0\nsamples = 2\nvalue = [2, 0]"] ;
67 -> 68 ;
69 [label="gini = 0.0\nsamples = 1\nvalue = [0, 1]"] ;
67 -> 69 ;
70 [label="day_of_week_5 <= 0.5\ngini = 0.444\nsamples = 3\nvalue = [2, 1]"] ;
20 -> 70 ;
71 [label="gini = 0.0\nsamples = 2\nvalue = [2, 0]"] ;
70 -> 71 ;
72 [label="gini = 0.0\nsamples = 1\nvalue = [0, 1]"] ;
70 -> 72 ;
73 [label="day_of_week_1 <= 0.5\ngini = 0.444\nsamples = 3\nvalue = [2, 1]"] ;
19 -> 73 ;
74 [label="gini = 0.0\nsamples = 1\nvalue = [0, 1]"] ;
73 -> 74 ;
75 [label="gini = 0.0\nsamples = 2\nvalue = [2, 0]"] ;
73 -> 75 ;
76 [label="Problem_DUMP - Dumpster Fire <= 0.5\ngini = 0.375\nsamples = 8\nvalue = [6, 2]"] ;
18 -> 76 ;
77 [label="hour_15 <= 0.5\ngini = 0.245\nsamples = 7\nvalue = [6, 1]"] ;
76 -> 77 ;
78 [label="gini = 0.0\nsamples = 5\nvalue = [5, 0]"] ;
77 -> 78 ;
79 [label="gini = 0.5\nsamples = 2\nvalue = [1, 1]"] ;
77 -> 79 ;
80 [label="gini = 0.0\nsamples = 1\nvalue = [0, 1]"] ;
76 -> 80 ;
81 [label="hour_13 <= 0.5\ngini = 0.5\nsamples = 2\nvalue = [1, 1]"] ;
17 -> 81 ;
82 [label="gini = 0.0\nsamples = 1\nvalue = [1, 0]"] ;
81 -> 82 ;
83 [label="gini = 0.0\nsamples = 1\nvalue = [0, 1]"] ;
81 -> 83 ;
84 [label="hour_23 <= 0.5\ngini = 0.5\nsamples = 2\nvalue = [1, 1]"] ;
16 -> 84 ;
85 [label="gini = 0.0\nsamples = 1\nvalue = [1, 0]"] ;
84 -> 85 ;
86 [label="gini = 0.0\nsamples = 1\nvalue = [0, 1]"] ;
84 -> 86 ;
87 [label="day_of_week_4 <= 0.5\ngini = 0.5\nsamples = 2\nvalue = [1, 1]"] ;
15 -> 87 ;
88 [label="gini = 0.0\nsamples = 1\nvalue = [0, 1]"] ;
87 -> 88 ;
89 [label="gini = 0.0\nsamples = 1\nvalue = [1, 0]"] ;
87 -> 89 ;
90 [label="day_of_week_4 <= 0.5\ngini = 0.5\nsamples = 2\nvalue = [1, 1]"] ;
14 -> 90 ;
91 [label="gini = 0.0\nsamples = 1\nvalue = [1, 0]"] ;
90 -> 91 ;
92 [label="gini = 0.0\nsamples = 1\nvalue = [0, 1]"] ;
90 -> 92 ;
93 [label="hour_15 <= 0.5\ngini = 0.5\nsamples = 2\nvalue = [1, 1]"] ;
13 -> 93 ;
94 [label="gini = 0.0\nsamples = 1\nvalue = [0, 1]"] ;
93 -> 94 ;
95 [label="gini = 0.0\nsamples = 1\nvalue = [1, 0]"] ;
93 -> 95 ;
96 [label="day_of_week_2 <= 0.5\ngini = 0.444\nsamples = 6\nvalue = [4, 2]"] ;
12 -> 96 ;
97 [label="gini = 0.0\nsamples = 4\nvalue = [4, 0]"] ;
96 -> 97 ;
98 [label="gini = 0.0\nsamples = 2\nvalue = [0, 2]"] ;
96 -> 98 ;
99 [label="gini = 0.0\nsamples = 1\nvalue = [0, 1]"] ;
11 -> 99 ;
100 [label="gini = 0.0\nsamples = 1\nvalue = [0, 1]"] ;
10 -> 100 ;
101 [label="gini = 0.0\nsamples = 1\nvalue = [0, 1]"] ;
9 -> 101 ;
102 [label="gini = 0.0\nsamples = 1\nvalue = [0, 1]"] ;
8 -> 102 ;
103 [label="gini = 0.0\nsamples = 1\nvalue = [0, 1]"] ;
7 -> 103 ;
104 [label="gini = 0.0\nsamples = 1\nvalue = [0, 1]"] ;
6 -> 104 ;
105 [label="gini = 0.0\nsamples = 1\nvalue = [0, 1]"] ;
5 -> 105 ;
106 [label="gini = 0.0\nsamples = 1\nvalue = [0, 1]"] ;
4 -> 106 ;
107 [label="gini = 0.0\nsamples = 1\nvalue = [0, 1]"] ;
3 -> 107 ;
108 [label="gini = 0.0\nsamples = 1\nvalue = [0, 1]"] ;
2 -> 108 ;
109 [label="gini = 0.0\nsamples = 1\nvalue = [0, 1]"] ;
1 -> 109 ;
110 [label="gini = 0.0\nsamples = 2\nvalue = [0, 2]"] ;
0 -> 110 [labeldistance=2.5, labelangle=-45, headlabel="False"] ;
}
